{"internalDocumentIDStore":{"internalIdToId":["5645030a3f4b1630e001bf5f2708b13b","ec748b11b4fdbf223089f50cc7da5044","b7f6665286ea77760fb815ac0d92dea5"]},"index":{"indexes":{"id":{"type":"Radix","node":{"w":"","s":"","c":{"5":{"w":"5645030a3f4b1630e001bf5f2708b13b","s":"5645030a3f4b1630e001bf5f2708b13b","c":{},"d":[1],"e":true},"e":{"w":"ec748b11b4fdbf223089f50cc7da5044","s":"ec748b11b4fdbf223089f50cc7da5044","c":{},"d":[2],"e":true},"b":{"w":"b7f6665286ea77760fb815ac0d92dea5","s":"b7f6665286ea77760fb815ac0d92dea5","c":{},"d":[3],"e":true}},"d":[],"e":false},"isArray":false},"title":{"type":"Radix","node":{"w":"","s":"","c":{"t":{"w":"t","s":"t","c":{"a":{"w":"task","s":"ask","c":{"s":{"w":"tasks","s":"s","c":{},"d":[1],"e":true}},"d":[2],"e":true},"e":{"w":"template","s":"emplate","c":{},"d":[2,3],"e":true}},"d":[],"e":false},"m":{"w":"meeting","s":"meeting","c":{},"d":[3],"e":true}},"d":[],"e":false},"isArray":false},"path":{"type":"Radix","node":{"w":"","s":"","c":{"0":{"w":"03_docs","s":"03_docs","c":{},"d":[1,2,3],"e":true},"t":{"w":"t","s":"t","c":{"a":{"w":"task","s":"ask","c":{"s":{"w":"tasks","s":"s","c":{},"d":[1],"e":true}},"d":[2],"e":true},"e":{"w":"template","s":"emplate","c":{"s":{"w":"templates","s":"s","c":{},"d":[2,3],"e":true}},"d":[2,3],"e":true}},"d":[],"e":false},"m":{"w":"m","s":"m","c":{"d":{"w":"md","s":"d","c":{},"d":[1,2,3],"e":true},"e":{"w":"meeting","s":"eeting","c":{},"d":[3],"e":true}},"d":[],"e":false}},"d":[],"e":false},"isArray":false},"content":{"type":"Radix","node":{"w":"","s":"","c":{"0":{"w":"0","s":"0","c":{"0":{"w":"00","s":"0","c":{},"d":[2],"e":true},"3":{"w":"03","s":"3","c":{},"d":[1],"e":true},"5":{"w":"05","s":"5","c":{},"d":[1],"e":true},"6":{"w":"06","s":"6","c":{},"d":[3],"e":true},"7":{"w":"07","s":"7","c":{},"d":[1,2,3],"e":true}},"d":[],"e":false},"1":{"w":"1","s":"1","c":{"0":{"w":"10","s":"0","c":{},"d":[1],"e":true},"1":{"w":"11","s":"1","c":{},"d":[3],"e":true},"3":{"w":"13","s":"3","c":{},"d":[2,3],"e":true},"4":{"w":"14","s":"4","c":{},"d":[1,2],"e":true},"5":{"w":"15","s":"5","c":{},"d":[3],"e":true},"8":{"w":"18","s":"8","c":{},"d":[2],"e":true}},"d":[],"e":false},"2":{"w":"2","s":"2","c":{"0":{"w":"2025","s":"025","c":{},"d":[1,2,3],"e":true},"4":{"w":"24","s":"4","c":{},"d":[3],"e":true},"8":{"w":"28","s":"8","c":{},"d":[1,2],"e":true}},"d":[],"e":false},"3":{"w":"35","s":"35","c":{},"d":[2],"e":true},"4":{"w":"48","s":"48","c":{},"d":[1],"e":true},"5":{"w":"5","s":"5","c":{"2":{"w":"52","s":"2","c":{},"d":[2],"e":true},"6":{"w":"56","s":"6","c":{},"d":[1],"e":true}},"d":[],"e":false},"n":{"w":"note","s":"note","c":{"s":{"w":"notes","s":"s","c":{},"d":[2,3],"e":true}},"d":[1,2,3],"e":true},"t":{"w":"t","s":"t","c":{"i":{"w":"title","s":"itle","c":{},"d":[1,2,3],"e":true},"a":{"w":"ta","s":"a","c":{"s":{"w":"task","s":"sk","c":{"s":{"w":"tasks","s":"s","c":{},"d":[1],"e":true}},"d":[2],"e":true},"g":{"w":"tags","s":"gs","c":{},"d":[2],"e":true}},"d":[],"e":false},"o":{"w":"to","s":"o","c":{"-":{"w":"to-do","s":"-do","c":{},"d":[1],"e":true},"m":{"w":"tomer","s":"mer","c":{},"d":[3],"e":true}},"d":[],"e":false},"e":{"w":"template","s":"emplate","c":{},"d":[2,3],"e":true},"h":{"w":"the","s":"he","c":{},"d":[2],"e":true}},"d":[],"e":false},"m":{"w":"m","s":"m","c":{"e":{"w":"me","s":"e","c":{"t":{"w":"metadata","s":"tadata","c":{},"d":[1,2,3],"e":true},"e":{"w":"meeting","s":"eting","c":{},"d":[3],"e":true}},"d":[],"e":false},"o":{"w":"modified","s":"odified","c":{},"d":[1,2,3],"e":true}},"d":[],"e":false},"k":{"w":"kanban","s":"kanban","c":{"-":{"w":"kanban-plugin","s":"-plugin","c":{},"d":[1],"e":true}},"d":[1],"e":true},"b":{"w":"b","s":"b","c":{"o":{"w":"board","s":"oard","c":{},"d":[1],"e":true},"l":{"w":"block","s":"lock","c":{"e":{"w":"blocked","s":"ed","c":{},"d":[1],"e":true}},"d":[1,2,3],"e":true},"a":{"w":"backlog","s":"acklog","c":{},"d":[1],"e":true}},"d":[],"e":false},"c":{"w":"c","s":"c","c":{"r":{"w":"created","s":"reated","c":{},"d":[1,2,3],"e":true},"o":{"w":"content","s":"ontent","c":{},"d":[1,2,3],"e":true}},"d":[],"e":false},"-":{"w":"-","s":"-","c":{"-":{"w":"--","s":"-","c":{"-":{"w":"---","s":"-","c":{},"d":[1],"e":true}},"d":[2],"e":true}},"d":[2],"e":true},"d":{"w":"d","s":"d","c":{"o":{"w":"do","s":"o","c":{"i":{"w":"doing","s":"ing","c":{},"d":[1],"e":true},"n":{"w":"done","s":"ne","c":{},"d":[1],"e":true}},"d":[],"e":false},"e":{"w":"description","s":"escription","c":{},"d":[2],"e":true},"u":{"w":"due","s":"ue","c":{},"d":[2],"e":true},"a":{"w":"dat","s":"at","c":{"e":{"w":"date","s":"e","c":{},"d":[2,3],"e":true},"u":{"w":"datum","s":"um","c":{},"d":[3],"e":true}},"d":[],"e":false}},"d":[],"e":false},"p":{"w":"p","s":"p","c":{"a":{"w":"pauzed","s":"auzed","c":{},"d":[1],"e":true},"r":{"w":"project","s":"roject","c":{},"d":[2],"e":true}},"d":[],"e":false},"s":{"w":"s","s":"s","c":{"e":{"w":"se","s":"e","c":{"t":{"w":"settings","s":"ttings","c":{},"d":[1],"e":true},"c":{"w":"second","s":"cond","c":{},"d":[2],"e":true}},"d":[],"e":false},"h":{"w":"short","s":"hort","c":{},"d":[2],"e":true},"u":{"w":"su","s":"u","c":{"m":{"w":"summary","s":"mmary","c":{},"d":[2],"e":true},"b":{"w":"subtasks","s":"btasks","c":{},"d":[2],"e":true}},"d":[],"e":false},"t":{"w":"step","s":"tep","c":{},"d":[2],"e":true}},"d":[],"e":false},"l":{"w":"li","s":"li","c":{"s":{"w":"list-collapse","s":"st-collapse","c":{},"d":[1],"e":true},"n":{"w":"link","s":"nk","c":{},"d":[2],"e":true}},"d":[],"e":false},"f":{"w":"f","s":"f","c":{"a":{"w":"false","s":"alse","c":{},"d":[1],"e":true},"i":{"w":"fi","s":"i","c":{"r":{"w":"first","s":"rst","c":{},"d":[2],"e":true},"n":{"w":"final","s":"nal","c":{},"d":[2],"e":true}},"d":[],"e":false}},"d":[],"e":false},"w":{"w":"write","s":"write","c":{},"d":[2],"e":true},"a":{"w":"a","s":"a","c":{"c":{"w":"acti","s":"cti","c":{"o":{"w":"actionable","s":"onable","c":{},"d":[2],"e":true},"e":{"w":"acties","s":"es","c":{},"d":[3],"e":true}},"d":[],"e":false},"a":{"w":"aanwezigen","s":"anwezigen","c":{},"d":[3],"e":true}},"d":[2],"e":true},"o":{"w":"o","s":"o","c":{"f":{"w":"of","s":"f","c":{},"d":[2],"e":true},"r":{"w":"or","s":"r","c":{},"d":[2],"e":true}},"d":[],"e":false},"r":{"w":"re","s":"re","c":{"v":{"w":"review","s":"view","c":{},"d":[2],"e":true},"l":{"w":"related","s":"lated","c":{},"d":[2],"e":true}},"d":[],"e":false},"y":{"w":"yyyy-mm-dd","s":"yyyy-mm-dd","c":{},"d":[2],"e":true},"h":{"w":"here","s":"here","c":{},"d":[2],"e":true},"i":{"w":"i","s":"i","c":{"n":{"w":"info","s":"nfo","c":{},"d":[2],"e":true},"d":{"w":"ideas","s":"deas","c":{},"d":[2],"e":true}},"d":[],"e":false},"g":{"w":"go","s":"go","c":{},"d":[2],"e":true},"v":{"w":"voorbereiding","s":"voorbereiding","c":{},"d":[3],"e":true}},"d":[],"e":false},"isArray":false},"embeddingModel":{"type":"Radix","node":{"w":"","s":"","c":{"t":{"w":"text-embedding-004","s":"text-embedding-004","c":{},"d":[1,2,3],"e":true}},"d":[],"e":false},"isArray":false},"created_at":{"type":"AVL","node":{"root":{"k":1753869874512,"v":[1],"l":{"k":0,"v":[],"l":null,"r":null,"h":0},"r":{"k":1753869874513,"v":[2],"l":null,"r":{"k":1753869874514,"v":[3],"l":null,"r":null,"h":0},"h":1},"h":2}},"isArray":false},"ctime":{"type":"AVL","node":{"root":{"k":1748437008656,"v":[1],"l":{"k":0,"v":[],"l":null,"r":null,"h":0},"r":{"k":1753703555314,"v":[2],"l":{"k":1749647604733,"v":[3],"l":null,"r":null,"h":0},"r":null,"h":1},"h":2}},"isArray":false},"mtime":{"type":"AVL","node":{"root":{"k":1753704018384,"v":[2],"l":{"k":0,"v":[],"l":null,"r":{"k":1749647707769,"v":[3],"l":null,"r":null,"h":0},"h":1},"r":{"k":1753704190028,"v":[1],"l":null,"r":null,"h":0},"h":2}},"isArray":false},"tags":{"type":"Radix","node":{"w":"","s":"","c":{"t":{"w":"task","s":"task","c":{},"d":[2],"e":true}},"d":[],"e":false},"isArray":true},"extension":{"type":"Radix","node":{"w":"","s":"","c":{"m":{"w":"md","s":"md","c":{},"d":[1,2,3],"e":true}},"d":[],"e":false},"isArray":false}},"vectorIndexes":{"embedding":{"size":768,"vectors":{"5645030a3f4b1630e001bf5f2708b13b":[0.9999711391688966,[0.003640169743448496,0.06985644996166229,-0.03555018827319145,0.020599963143467903,0.010210412554442883,0.0414724238216877,0.05680073797702789,0.0040246713906526566,0.02786209061741829,-0.005647291895002127,0.008672576397657394,0.04904632642865181,0.04993630200624466,-0.007515646982938051,-0.009382178075611591,-0.05373264104127884,0.02722453512251377,0.015292626805603504,-0.002793657360598445,-0.04904138296842575,-0.0476333349943161,-0.0034987733233720064,-0.022859817370772362,0.022498730570077896,-0.018130848184227943,-0.055361729115247726,0.0021675783209502697,0.0032966332510113716,0.006215403787791729,-0.029242906719446182,0.012260382995009422,0.035558320581912994,0.011747080832719803,-0.01770019717514515,0.04153968766331673,0.047103554010391235,-0.03642477095127106,0.055000972002744675,0.025249101221561432,-0.02376655675470829,-0.05583485588431358,-0.011703254655003548,-0.024739054962992668,0.01781839318573475,-0.023505883291363716,0.02502676285803318,-0.02566465362906456,-0.03367546573281288,-0.0026152092032134533,0.036188479512929916,0.05944085121154785,0.018125224858522415,-0.011161784641444683,-0.026892758905887604,-0.09025696665048599,-0.09528747946023941,-0.07087402790784836,-0.05006769299507141,0.04776985943317413,0.003712485311552882,-0.0009320825338363647,-0.018893349915742874,-0.05078694224357605,-0.05445023626089096,-0.0047339159063994884,-0.01613028161227703,0.004425089340656996,0.005584333091974258,-0.00466271722689271,0.014410408213734627,-0.03580300882458687,0.04957326501607895,-0.03571551293134689,-0.010534930042922497,-0.03789380192756653,0.0163370780646801,0.007164090871810913,0.010398613288998604,0.02788974717259407,0.035416729748249054,-0.009369309060275555,-0.026332233101129532,0.03261347487568855,0.03668864816427231,0.043330349028110504,0.035286687314510345,-0.008724751882255077,0.01548034604638815,-0.0110020712018013,-0.05282768979668617,0.07616087794303894,0.02223910205066204,-0.02690683864057064,0.00855739414691925,0.09912456572055817,-0.03811704367399216,-0.08799727261066437,-0.12353251874446869,0.05106545239686966,0.021031100302934647,-0.026575472205877304,0.0018385954899713397,-0.0004885800299234688,-0.050772011280059814,0.01207355409860611,-0.03575091063976288,-0.07100285589694977,-0.013679499737918377,-0.0875304788351059,0.016290027648210526,-0.010141191072762012,-0.01546722836792469,0.02117534540593624,-0.009572031907737255,-0.013741729781031609,0.050584662705659866,0.004426072351634502,0.018752126023173332,-0.0032764223869889975,-0.04799652099609375,0.0659186989068985,0.06862156838178635,-0.01063736341893673,0.04607505723834038,0.05994029343128204,0.024958299472928047,-0.028482500463724136,-0.010479399003088474,0.006816167384386063,0.015566272661089897,0.04402022436261177,-0.03272513300180435,-0.040730271488428116,0.04133201390504837,0.0071963174268603325,0.017328403890132904,0.03176245465874672,0.03551710024476051,0.051979292184114456,0.017344197258353233,-0.010017313063144684,-0.014518413692712784,-0.07868389785289764,0.04113857448101044,0.03039480559527874,-0.016755186021327972,0.03714525327086449,0.05598068609833717,-0.004452644381672144,0.040318526327610016,-0.022952526807785034,-0.0027960892766714096,-0.016714030876755714,-0.017978927120566368,0.0008093868964351714,-0.042020007967948914,0.02442803792655468,-0.042833566665649414,0.019710635766386986,0.016878392547369003,0.0242628064006567,-0.05306770280003548,0.01715278998017311,0.059296976774930954,0.015490235760807991,-0.05997075140476227,-0.0973874032497406,-0.006608067080378532,0.020328881219029427,0.011517113074660301,-0.039533961564302444,-0.042828530073165894,-0.03781136870384216,-0.0331367589533329,-0.018792590126395226,0.049717407673597336,0.02824065461754799,0.003321321913972497,-0.04971588775515556,-0.022899381816387177,0.08912990987300873,0.05731750279664993,0.0005372666055336595,-0.010181889869272709,0.0068144118413329124,0.017119109630584717,-0.016579072922468185,0.006533151492476463,0.023702304810285568,0.03297581896185875,0.03261725232005119,-0.025680072605609894,0.06065266579389572,0.05662908777594566,-0.0317707434296608,0.030688656494021416,0.044912151992321014,0.018131576478481293,-0.02662176825106144,-0.01810135878622532,0.04897761344909668,0.030715469270944595,-0.03377870097756386,0.03648696094751358,0.003463511820882559,0.005031748674809933,-0.022710414603352547,-0.07165511697530746,0.01708127185702324,-0.02106732688844204,0.0010469818953424692,-0.030615750700235367,-0.016900494694709778,-0.04041784256696701,0.03431268781423569,-0.005004587583243847,0.035157460719347,0.028474587947130203,0.05216509848833084,-0.017494020983576775,0.004367420449852943,0.013977316208183765,0.012072146870195866,0.02433515153825283,0.00894933007657528,-0.03610388934612274,-0.08061476051807404,0.006397509016096592,0.020746786147356033,-0.03328339010477066,0.019013766199350357,0.08803965151309967,0.0011759264161810279,-0.011292088776826859,-0.01676958054304123,0.014968599192798138,0.0037775759119540453,-0.07509360462427139,-0.04374706745147705,0.03629324585199356,-0.004097143188118935,-0.031418848782777786,0.01914629153907299,0.015645360574126244,0.06236657500267029,0.002866016235202551,0.0016193683259189129,0.0035308816004544497,-0.022992216050624847,-0.019774693995714188,0.043697454035282135,-0.03246061131358147,-0.03604797273874283,-0.006693169940263033,-0.02706189826130867,0.025945933535695076,0.01796184480190277,-0.02129286341369152,0.0006564314826391637,-0.003552303183823824,0.033086374402046204,-0.044218674302101135,-0.020836086943745613,-0.051587533205747604,-0.07943549752235413,-0.07119660079479218,-0.042068950831890106,-0.0033942810259759426,0.019263457506895065,-0.02649230882525444,0.04704025015234947,-0.05879548564553261,-0.07093998789787292,0.005695771891623735,-0.06575265526771545,0.005376497749239206,-0.021608302369713783,0.006679513491690159,-0.05686424300074577,-0.037619806826114655,0.057322267442941666,-0.01895684190094471,0.06088370084762573,-0.0016689000185579062,0.03803928568959236,-0.006029556039720774,-0.0388907827436924,-0.029876867309212685,-0.008422127924859524,-0.027910565957427025,0.021981429308652878,0.053577523678541183,-0.04197674244642258,-0.026155121624469757,0.02036360837519169,0.03391185775399208,0.038310058414936066,0.09080080687999725,0.017530500888824463,-0.026055678725242615,0.05428513139486313,0.014932778663933277,-0.009708541445434093,0.031400762498378754,-0.017309710383415222,0.028705131262540817,-0.04904864355921745,-0.018543004989624023,-0.0068979389034211636,-0.02890596352517605,0.040654268115758896,0.023234568536281586,-0.04261299967765808,0.032901331782341,-0.025436855852603912,-0.03644946590065956,-0.1901635080575943,0.02450527250766754,-0.011566410772502422,0.014956984668970108,0.023429669439792633,0.0071706026792526245,-0.08014924079179764,-0.006488970015197992,0.012551257386803627,-0.020443351939320564,0.005552608519792557,0.015667321160435677,-0.008130769245326519,0.02667032741010189,0.029666278511285782,0.0015684670070186257,-0.015472672879695892,-0.0037789768539369106,-0.01238192617893219,0.033276334404945374,-0.033511992543935776,0.004930088762193918,0.05240311101078987,0.051031891256570816,0.013764397241175175,0.007183424662798643,0.01603543385863304,0.040658723562955856,-0.020274963229894638,-0.0268524382263422,0.015711842104792595,-0.026289256289601326,0.019821347668766975,-0.03788977488875389,0.051782477647066116,0.07235207408666611,-0.004576049279421568,0.02138405293226242,0.013252363540232182,0.010098254308104515,0.025699002668261528,0.002478891285136342,0.00398913724347949,-0.04701743274927139,0.0026431474834680557,0.036851439625024796,0.008464541286230087,0.06180252507328987,-0.02846049889922142,0.02024790085852146,0.053639188408851624,0.04848272725939751,0.00438032066449523,-0.03881999850273132,-0.07345160841941833,0.038952816277742386,0.0038402134086936712,-0.027287911623716354,-0.005116713233292103,-0.03203824907541275,-0.04508887603878975,0.02345087006688118,0.0056075444445014,-0.06600616127252579,-0.02533085271716118,-0.022209862247109413,-0.00018274589092470706,0.03090808354318142,0.00102621887344867,0.09186935424804688,-0.07286293804645538,0.011371934786438942,-0.013218101114034653,-0.025346919894218445,-0.008653911761939526,0.015459085814654827,0.005864820908755064,0.040892574936151505,-0.020458318293094635,0.030146561563014984,-0.007768832612782717,0.06969580054283142,0.001689313561655581,0.04310597851872444,-0.06609116494655609,-0.0262997355312109,0.048231419175863266,-0.015051884576678276,-0.021287845447659492,-0.004428896587342024,0.02960248477756977,0.03216423839330673,0.009856831282377243,0.023933228105306625,0.031532999128103256,-0.06121790409088135,-0.03208483010530472,-0.0006755854701623321,-0.017384657636284828,0.02599882334470749,-0.00025945776724256575,0.010529915802180767,0.016040027141571045,0.023342078551650047,-0.021500693634152412,0.0034445333294570446,0.046360623091459274,0.01023645419627428,-0.038669273257255554,-0.07088076323270798,-0.01233292743563652,-0.004311024211347103,-0.0003417672705836594,0.0018264271784573793,0.0285816490650177,0.05414874106645584,-0.03806256502866745,-0.030233096331357956,-0.00818159431219101,0.023834828287363052,0.003034194465726614,-0.07104354351758957,0.004870698321610689,0.033666275441646576,0.032155703753232956,0.016093237325549126,0.07841764390468597,0.002794928615912795,-0.0003918317670468241,0.019916163757443428,0.008220347575843334,-0.006253795698285103,0.011125674471259117,-0.06516193598508835,-0.019223647192120552,0.009176371619105339,0.022983573377132416,-0.04469738528132439,-0.08331622928380966,0.05093469098210335,0.013093307614326477,0.02679511532187462,-0.02652420662343502,-0.025636747479438782,-0.06747877597808838,0.00033217211603187025,0.03845471516251564,-0.016690144315361977,0.01836589351296425,-0.07439158856868744,-0.06789926439523697,0.002953018294647336,-0.003528939327225089,0.0004485298413783312,0.028011679649353027,0.02194271609187126,0.014757394790649414,0.01502707414329052,-0.01990760676562786,0.014223639853298664,0.06574049592018127,-0.004859192296862602,-0.00883084163069725,0.012267162092030048,-0.017264077439904213,0.003953489940613508,-0.036597199738025665,0.009837000630795956,0.03881586343050003,-0.019827336072921753,-0.03717707097530365,0.009951039217412472,0.025829672813415527,-0.06061314791440964,0.018140682950615883,-0.019637852907180786,-0.03702998533844948,0.021908538416028023,0.02204355224967003,0.010447493754327297,0.06451760232448578,-0.017517222091555595,0.00031925219809636474,0.005641017574816942,0.09557316452264786,0.010511305183172226,0.0316818468272686,-0.019888577982783318,0.007033458445221186,-0.01977730542421341,-0.007462455425411463,-0.02244545705616474,0.08261236548423767,0.06350616365671158,0.027084149420261383,-0.02075095847249031,0.0017910333117470145,0.014637023210525513,-0.04693032428622246,0.02876521646976471,-0.06612486392259598,-0.015757201239466667,0.011149933561682701,0.01738746650516987,-0.0531739816069603,-0.033437974750995636,0.027606377378106117,0.009912041015923023,-0.014779331162571907,-0.01740763895213604,-0.00901065580546856,0.031174173578619957,0.03361978754401207,0.025905312970280647,-0.008268545381724834,0.08612672239542007,0.06929907947778702,-0.0005440954118967056,0.06322576850652695,0.03913186490535736,0.05495947599411011,-0.00942248199135065,0.05120956152677536,0.00902978889644146,0.0024728779681026936,0.04441108554601669,0.03799492493271828,-0.013745078817009926,0.05739707127213478,0.0007252631476148963,0.0026722471229732037,0.04918724671006203,-0.013172205537557602,0.06254315376281738,-0.017724599689245224,-0.01542749535292387,-0.03772272914648056,0.036154087632894516,-0.01532354298979044,-0.04570326209068298,0.06697147339582443,-0.0243679191917181,-0.008306226693093777,-0.007305434439331293,0.03494657203555107,-0.008792719803750515,-0.02711917832493782,-0.008930705487728119,-0.01309962384402752,-0.024613555520772934,-0.01177832018584013,0.07796132564544678,-0.0013204144779592752,-0.005548715125769377,-0.020330917090177536,0.005386091768741608,0.03841417282819748,-0.007035708986222744,0.021886149421334267,0.02977519854903221,-0.059659700840711594,-0.0069411443546414375,0.00497248861938715,0.015497704967856407,-0.01249972078949213,0.0033804879058152437,0.05167016386985779,0.028902385383844376,-0.02733415551483631,0.014282726682722569,0.0014826960396021605,-0.04885407164692879,0.0315714068710804,0.015389472246170044,0.004373292438685894,-0.011140142567455769,-0.009551707655191422,-0.025043759495019913,0.061468131840229034,-0.0005143986782059073,-0.0382009819149971,0.005925782490521669,0.002052102703601122,-0.008484669029712677,0.05549953132867813,-0.029034990817308426,0.02989470213651657,-0.02163640968501568,-0.023640252649784088,-0.05683131888508797,-0.05573169142007828,-0.09490946680307388,0.03852732479572296,0.04336565360426903,-0.00420677475631237,0.054457876831293106,0.010139357298612595,-0.06318190693855286,-0.07885810732841492,0.03599482774734497,-0.045280855149030685,0.0024211856070905924,0.05689827725291252,0.05733140930533409,-0.00029878580244258046,0.03657536208629608,-0.00666693365201354,-0.04034972935914993,0.01784992404282093,-0.027693932875990868,-0.01856107823550701,-0.03391842171549797,0.010875743813812733,-0.025209622457623482,-0.04473317787051201,0.031312938779592514,0.05156564339995384,-0.03900475054979324,-0.022206228226423264,-0.01301629189401865,-0.030957883223891258,0.01943015679717064,-0.004677004646509886,-0.051810890436172485,0.0024065449833869934,0.06513545662164688,0.07304162532091141,-0.02755790948867798,-0.05421732738614082,-0.008787054568529129,0.00834561511874199,0.022505352273583412,0.017696743831038475,0.017997493967413902,0.010820119641721249,0.0644121989607811,-0.006526722572743893,0.02945183590054512,-0.035325344651937485,-0.006623145192861557,-0.04220891743898392,-0.01279591303318739,0.047041844576597214,-0.01849876157939434,-0.048339299857616425,-0.01246442086994648,-0.002119084121659398,-0.01182507537305355,-0.02359611727297306,-0.023728394880890846,-0.0762430876493454,-0.026730891317129135,0.017458509653806686,-0.01901015266776085,0.014662466943264008,-0.011731746606528759,0.0048238979652523994,0.05984576418995857,0.0031544831581413746,-0.05063683167099953,0.03283797204494476,0.030639206990599632,0.00457494193688035,0.032798148691654205,-0.03896211087703705,-0.00014474792988039553,0.03559910133481026,-0.03390231728553772,0.04079751297831535,0.004759705159813166,0.023132823407649994,-0.03666985034942627,0.03050187975168228,-0.0029670947697013617,0.009352903813123703,-0.020020999014377594,-0.020591232925653458,0.04709336534142494,-0.033434391021728516,0.03721744567155838,-0.033680509775877,0.03231590986251831,-0.0033674619626253843,-0.013833962380886078,0.055240433663129807,-0.014495623297989368,-0.023578787222504616,-0.04006439074873924,0.023932313546538353,-0.011716256849467754,0.03618156909942627,0.054656729102134705,0.003036872250959277,0.03280070424079895,-0.037419818341732025,0.02190990373492241,0.0689312294125557,0.022432008758187294,0.029694991186261177,0.007349672261625528,0.015573328360915184,0.020349469035863876,-0.006696576252579689,0.06894762814044952,0.007391680963337421,-0.042352426797151566,0.024216018617153168,0.03486078232526779,-0.005178629886358976,-0.016864178702235222,-0.01990780048072338,0.03859880566596985,0.0005158382118679583,0.04358580335974693,0.012439198791980743,0.011669515632092953,-0.05919024720788002,0.007011261768639088,-0.01441283244639635,-0.04467509314417839,0.028252750635147095,-0.03888026252388954,0.03505616635084152,0.03313206508755684,0.02709891088306904,0.012126888148486614,0.013314844109117985,-0.06271956115961075,0.021685907617211342,0.01222296804189682,-0.012115325778722763,-0.031134238466620445,0.00005292560672387481,-0.04677548259496689,-0.07954961061477661,0.014823759905993938,0.000990214990451932,-0.012143924832344055,-0.01778845675289631,0.027284612879157066,0.03466612845659256,-0.018883712589740753,0.051621485501527786,0.017220523208379745,-0.023892082273960114,0.05944715067744255,0.027423953637480736,0.025653254240751266,-0.05271536856889725,-0.025136133655905724,0.055988166481256485,-0.040367525070905685]],"ec748b11b4fdbf223089f50cc7da5044":[0.999974040769377,[0.002249242505058646,0.05833158269524574,-0.03754246607422829,0.00025497458409518003,0.01771743968129158,0.05135945975780487,0.03989696875214577,0.03726297244429588,0.01683766208589077,-0.007806606590747833,-0.002401660429313779,0.04881782457232475,0.029203947633504868,-0.007076653651893139,0.019943607971072197,-0.01282691303640604,0.023087099194526672,0.0647067278623581,-0.03948597237467766,-0.02162155881524086,-0.03930645436048508,-0.00018273240129929036,-0.014875657856464386,-0.01354091428220272,-0.02700766734778881,-0.0662769004702568,0.02568230777978897,0.009959110990166664,0.03380684182047844,-0.04056653752923012,0.007979420945048332,0.052969109266996384,0.02209465019404888,-0.030699515715241432,0.04206972196698189,0.04828539863228798,-0.032899510115385056,0.021457314491271973,0.031379472464323044,-0.004825972486287355,-0.08680348843336105,-0.06265096366405487,-0.004889390897005796,0.0014507643645629287,-0.04323451593518257,0.007819817401468754,-0.05789145082235336,-0.02082562819123268,-0.04806780070066452,0.02292727492749691,0.05671270191669464,0.004016796126961708,-0.012293254025280476,-0.009566295892000198,-0.06603841483592987,-0.08195850998163223,-0.06602854281663895,-0.06310395896434784,0.05494619533419609,0.024548403918743134,0.0009244385873898864,-0.0012708056019619107,-0.03858815133571625,-0.06183542311191559,-0.02313295006752014,-0.011627142317593098,0.011098353192210197,-0.018978090956807137,-0.019735734909772873,0.011130820959806442,-0.026513393968343735,0.05384228378534317,-0.05102473497390747,-0.03723912313580513,-0.019186563789844513,0.0043831393122673035,0.0029509218875318766,-0.033601440489292145,0.0320456400513649,0.0005605589249171317,0.0016388397198170424,0.009452609345316887,0.05059463903307915,0.06379841268062592,0.03189602494239807,0.02265244722366333,0.010799926705658436,-0.030105624347925186,-0.05588352307677269,-0.04138648137450218,0.04303192347288132,0.034198928624391556,-0.03234225884079933,0.029418043792247772,0.07404302060604095,-0.04836779087781906,-0.0811312347650528,-0.15137740969657898,0.039464011788368225,0.030547158792614937,-0.01709691248834133,-0.02075239084661007,0.016225993633270264,-0.05904654785990715,0.024483375251293182,-0.0603206567466259,-0.056938305497169495,-0.025392688810825348,-0.09622137248516083,0.03980668634176254,0.0014685282949358225,0.01869242824614048,-0.006225212011486292,-0.023400282487273216,-0.04785216972231865,0.0031105210073292255,0.010585850104689598,0.031342361122369766,-0.023083437234163284,-0.0322238989174366,0.04029279574751854,0.02664632722735405,-0.033152446150779724,0.06425373256206512,0.06758932769298553,0.00983832310885191,0.003498912788927555,0.002691921079531312,-0.017884617671370506,0.005665300879627466,0.03241262584924698,-0.03464509919285774,-0.013352436013519764,0.030722208321094513,0.012373487465083599,-0.01521029882133007,-0.016581043601036072,0.04649680107831955,0.025029398500919342,0.02183755859732628,-0.005547471810132265,-0.005248949397355318,-0.09435286372900009,0.033205658197402954,0.037053123116493225,-0.036534298211336136,0.06379029154777527,0.03487103059887886,-0.01705944910645485,0.019781801849603653,-0.0696941465139389,0.022653775289654732,-0.010801092721521854,-0.03040710836648941,-0.02993275597691536,-0.056956253945827484,0.023492945358157158,-0.056308429688215256,0.03182808309793472,0.010275834240019321,0.007820077240467072,-0.03474367782473564,0.006193747743964195,0.054087068885564804,-0.025574766099452972,-0.04947522282600403,-0.05535034090280533,-0.004032289609313011,0.01657799817621708,-0.02914121188223362,-0.0601077638566494,-0.046322014182806015,-0.05615795776247978,-0.023440144956111908,0.01920745149254799,0.053599029779434204,0.014318658038973808,-0.00903701689094305,-0.07049105316400528,-0.004717002157121897,0.0618441104888916,0.035279903560876846,-0.03563355281949043,-0.021084493026137352,0.03627192974090576,0.0010729412315413356,0.0018956192070618272,0.022720767185091972,0.00880817323923111,0.06434567272663116,0.014537493698298931,-0.02617287077009678,0.0056071835570037365,0.06523017585277557,-0.022142082452774048,0.04219752550125122,0.0523199625313282,-0.026679007336497307,-0.03875843435525894,-0.008010339923202991,0.06535530090332031,0.04443049430847168,-0.0315239354968071,0.01405050978064537,-0.008937656879425049,0.012013553641736507,-0.02779015153646469,-0.07157311588525772,0.03571109101176262,-0.006440975237637758,-0.014177578501403332,-0.015458076260983944,0.011637489311397076,-0.047871533781290054,0.01361495815217495,-0.01676623336970806,0.04754803702235222,0.030134202912449837,0.10056509077548981,-0.006536707282066345,0.00874682329595089,-0.0162996593862772,0.03663717955350876,0.05645815655589104,-0.0006439767894335091,0.004843317903578281,-0.0774935707449913,-0.0030459980480372906,0.0034439093433320522,-0.036870505660772324,0.0011158171109855175,0.04693781957030296,0.006157849915325642,0.00024459665291942656,-0.018731089308857918,0.04028173163533211,-0.002976337680593133,-0.08370296657085419,-0.04068293794989586,0.002063191030174494,0.03246592357754707,0.01636364310979843,0.02963854745030403,0.005821565631777048,0.03486122936010361,0.0032047745771706104,-0.011331426911056042,-0.008249104022979736,0.005463599693030119,-0.023783715441823006,0.049133915454149246,-0.021546825766563416,-0.028329752385616302,-0.046821024268865585,-0.050884366035461426,0.042526762932538986,0.027252662926912308,-0.007313067559152842,0.01640809141099453,0.0017911926843225956,0.03638226538896561,-0.032256048172712326,-0.023072898387908936,-0.03493368625640869,-0.04081069678068161,-0.03872472792863846,-0.03827313706278801,-0.019114689901471138,0.0024985061027109623,-0.0275160800665617,-0.00040679119410924613,-0.05079156160354614,-0.07225170731544495,0.0032755709253251553,-0.07257605344057083,0.012842745520174503,-0.036044228821992874,-0.0008372057927772403,-0.08253763616085052,-0.02013668790459633,0.06357620656490326,-0.032361436635255814,0.005786093883216381,-0.03821183741092682,0.04502153396606445,-0.015308362431824207,-0.03462733328342438,-0.0061137378215789795,-0.01185388583689928,-0.01638113707304001,0.026538021862506866,0.05147441849112511,-0.00703052431344986,-0.04768725484609604,0.03474738821387291,0.013716105371713638,0.045344121754169464,0.06403391808271408,0.03594757243990898,-0.029884997755289078,0.017375679686665535,0.016545508056879044,-0.0042269229888916016,0.06441163271665573,-0.04127289727330208,0.017759976908564568,-0.07187037914991379,-0.013456525281071663,-0.01228854339569807,-0.03559945523738861,0.04905955493450165,0.023607948794960976,-0.033519551157951355,0.03696609288454056,-0.0378243587911129,-0.021450957283377647,-0.15534187853336334,0.017074596136808395,-0.018919119611382484,0.04806540906429291,0.0474877655506134,-0.009348644874989986,-0.08770039677619934,-0.017345726490020752,0.046401653438806534,0.012269061990082264,0.022051777690649033,-0.009819725528359413,0.01327541097998619,-0.005788295064121485,0.036735016852617264,-0.027671318501234055,-0.02062055841088295,-0.011620565317571163,0.007247394882142544,0.06386735290288925,-0.03324594348669052,-0.010249794460833073,0.04868079349398613,0.04776609316468239,0.030563442036509514,0.0052837771363556385,0.02456911839544773,0.019721435382962227,-0.006140940822660923,-0.030829908326268196,0.004898887127637863,-0.05295546352863312,0.014152524061501026,-0.0288547296077013,0.05062323063611984,0.09324038028717041,0.023036111146211624,0.006208783946931362,-0.0010672062635421753,0.0015445059398189187,0.03672529384493828,0.03960126265883446,0.018639231100678444,-0.029824549332261086,-0.006938969250768423,0.03852132335305214,0.012005285359919071,0.07134336233139038,-0.016677817329764366,-0.0038425615057349205,0.022273967042565346,0.04932883009314537,-0.0040597738698124886,0.0012729180743917823,-0.04065381735563278,0.03433743864297867,0.046830251812934875,-0.010514156892895699,-0.0023762064520269632,-0.023971887305378914,-0.02755565755069256,0.016256257891654968,0.04281526431441307,-0.045482780784368515,-0.0049047996290028095,-0.028684115037322044,-0.010184808634221554,0.035020750015974045,-0.012848114594817162,0.07826913148164749,-0.07082708925008774,0.013118560425937176,-0.005004007834941149,-0.03494103625416756,-0.04354573413729668,0.028427358716726303,0.03169646114110947,0.05766763165593147,-0.018081843852996826,0.023570673540234566,-0.020792173221707344,0.05949726328253746,0.0031074120197445154,0.05442667752504349,-0.04917082563042641,0.00004485292811295949,0.047027744352817535,-0.009548550471663475,0.03315632790327072,0.0015643906081095338,0.048500027507543564,0.03954009339213371,-0.020827746018767357,-0.005095129366964102,-0.00307490024715662,-0.05327564850449562,-0.021861322224140167,0.01478799618780613,-0.030476953834295273,0.029115313664078712,0.007806036155670881,0.0004464868106879294,0.02261367067694664,0.053809911012649536,-0.0019105687970295548,0.0273954626172781,0.04287344589829445,0.04009472206234932,-0.04847441241145134,-0.09739583730697632,0.006857427302747965,-0.0001301359588978812,-0.014968843199312687,0.0032679084688425064,0.0484696589410305,0.04995248094201088,-0.013631381094455719,-0.03177378699183464,-0.005446168128401041,0.02078050747513771,-0.003356000641360879,-0.05761520937085152,-0.01961459591984749,0.031958434730768204,-0.0029593575745821,0.029077881947159767,0.05871498957276344,0.014105882495641708,-0.014463396742939949,0.012234613299369812,0.0037868984509259462,0.01584603637456894,0.009613011963665485,-0.08182304352521896,-0.04395317658782005,-0.02246991917490959,0.011628982611000538,-0.0823611468076706,-0.08899720013141632,0.056303076446056366,0.04857654869556427,0.026234205812215805,-0.02025505155324936,-0.02710781991481781,-0.06473851203918457,-0.0254479069262743,0.0339646115899086,-0.04366416856646538,0.026785943657159805,-0.05596582591533661,-0.08055227994918823,0.01622118055820465,-0.005760500207543373,-0.004571218974888325,0.04545493796467781,0.02266368828713894,0.025833893567323685,0.016585564240813255,-0.02969565987586975,0.02413603477180004,0.0564630851149559,0.011768314987421036,0.032944969832897186,0.01795598678290844,-0.019001668319106102,0.024615410715341568,-0.03960736095905304,0.007155624683946371,0.048289403319358826,-0.03681531175971031,-0.03945343568921089,-0.017541619017720222,0.0030591937247663736,-0.04359788820147514,-0.004171800799667835,0.001993853133171797,-0.02227875217795372,0.008518440648913383,0.020424140617251396,-0.0008494366775266826,0.04123686999082565,-0.007851632311940193,-0.006174017675220966,0.03612438589334488,0.06391393393278122,0.0036443753633648157,-0.009082980453968048,-0.026986928656697273,-0.029779065400362015,-0.02730029635131359,-0.03553066402673721,-0.028632845729589462,0.02001826837658882,0.07749159634113312,0.024985557422041893,-0.024144228547811508,0.016454044729471207,0.01903885044157505,-0.025881357491016388,0.018219828605651855,-0.047523509711027145,-0.012024416588246822,0.006395326927304268,0.05279926583170891,-0.03869396820664406,-0.051265254616737366,-0.0028420151211321354,-0.014630702324211597,-0.006660288665443659,-0.04349247366189957,0.018595850095152855,0.00018207883113063872,0.010481421835720539,0.004720989614725113,0.0005969954654574394,0.11162371188402176,0.03841086104512215,-0.000745804572943598,0.030204802751541138,0.04471570625901222,0.040123164653778076,-0.0016434374265372753,0.03228948265314102,0.052156586199998856,0.0076724267564713955,0.012954388745129108,0.02146998606622219,0.024881569668650627,0.05463995784521103,-0.020365646108984947,0.013995411805808544,0.01818467117846012,0.008234032429754734,0.06299237161874771,-0.00979395117610693,-0.024694345891475677,-0.044900357723236084,0.047864366322755814,-0.00985962525010109,-0.04918156936764717,0.03595626726746559,0.0011207186616957188,-0.03476925939321518,0.0201596450060606,0.01761460117995739,-0.0026224295143038034,-0.06582469493150711,-0.01070154458284378,-0.01950029470026493,0.0030934142414480448,-0.004107826855033636,0.08226980268955231,-0.013718211092054844,-0.011341799050569534,-0.026098869740962982,-0.004733810666948557,0.03064698912203312,-0.021132763475179672,0.023146478459239006,0.001272228080779314,-0.03501630201935768,-0.0005658704903908074,0.03217163309454918,0.010375836864113808,0.00962305162101984,0.005774380639195442,0.06477290391921997,0.014297585934400558,-0.001479797880165279,0.0016534317983314395,0.02394522726535797,-0.04258529096841812,0.03193714842200279,0.012018396519124508,0.007179142441600561,0.015021370723843575,0.007148202043026686,-0.02330685220658779,0.05213306099176407,-0.0022832315880805254,-0.026805737987160683,0.011100050061941147,-0.018863972276449203,-0.02842712588608265,0.03638553246855736,-0.02908308431506157,0.013668855652213097,-0.020939292386174202,-0.026746544986963272,-0.05854015797376633,-0.06172653287649155,-0.07541394978761673,0.02016391232609749,0.04155152663588524,-0.021058224141597748,0.03887586295604706,-0.006775012705475092,-0.052920907735824585,-0.08862130343914032,0.048103515058755875,-0.03853384777903557,0.011100536212325096,0.027580073103308678,0.0680065006017685,0.026309888809919357,0.057044729590415955,-0.015041982755064964,-0.03141867741942406,-0.03232228755950928,-0.031980354338884354,-0.019599737599492073,-0.02041914500296116,0.04536024481058121,-0.01797233149409294,-0.0415770560503006,0.010029396042227745,0.04155106842517853,-0.036333002150058746,-0.01678963005542755,-0.023520709946751595,-0.026375746354460716,-0.0069866664707660675,0.016901690512895584,-0.050331711769104004,0.002586834831163287,0.05201209709048271,0.0964791402220726,-0.03856787830591202,-0.058359622955322266,0.02787245810031891,0.014057658612728119,-0.006575684063136578,0.03327816352248192,0.009314040653407574,-0.03282853960990906,0.07191161066293716,0.012108804658055305,0.027641715481877327,-0.028919970616698265,-0.003199727740138769,-0.05268354341387749,-0.010446559637784958,0.00182914431206882,-0.02388860285282135,-0.022982770577073097,0.008116600103676319,-0.00028238145750947297,0.010790497064590454,-0.023381290957331657,-0.021734043955802917,-0.09040939807891846,-0.040060002356767654,-0.01194129977375269,-0.023800132796168327,-0.012269729748368263,-0.036784153431653976,0.01934870332479477,0.03939669579267502,0.00480475602671504,-0.06209758296608925,0.016800304874777794,0.021761445328593254,-0.000031993607990443707,0.02347140945494175,-0.04673237353563309,-0.018155936151742935,0.031072519719600677,-0.016658147796988487,0.006430586334317923,0.0029965811409056187,0.01296224258840084,-0.028643159195780754,-0.008981895633041859,-0.008387965150177479,-0.008232363499701023,-0.02410108596086502,-0.036569081246852875,0.05057564377784729,-0.03058798797428608,0.04352600872516632,-0.021827610209584236,0.04301152005791664,-0.03557955473661423,-0.0232292041182518,0.02016996219754219,-0.02135271206498146,-0.04042324051260948,-0.038965173065662384,0.03366002067923546,-0.01037726178765297,0.03869239613413811,0.04523320868611336,-0.02519831247627735,0.02438041940331459,-0.03427399322390556,0.039954349398612976,0.06209805980324745,0.02496240846812725,0.04327941685914993,0.010756995528936386,0.009986254386603832,0.05080437287688255,0.0019555347971618176,0.02799898013472557,0.025202665477991104,-0.04152580350637436,0.015503858216106892,0.03795374557375908,0.04095893353223801,-0.020556017756462097,-0.011644905433058739,-0.013333907350897789,-0.035782162100076675,0.025320783257484436,0.004010609816759825,0.015321614220738411,-0.029843967407941818,0.02787528745830059,-0.018841732293367386,-0.019854748621582985,0.022219505161046982,-0.013334768824279308,0.01425145287066698,0.005439744330942631,0.052340615540742874,0.0018342462135478854,-0.018683070316910744,-0.04567701742053032,0.0439116470515728,0.021919898688793182,-0.011719590984284878,-0.01021162886172533,-0.017217058688402176,-0.03614594042301178,-0.0816701278090477,0.008785972371697426,0.015723461285233498,-0.012755262665450573,0.0033064770977944136,0.007274945732206106,0.021555962041020393,-0.0029346938244998455,0.007164676673710346,0.006264128256589174,-0.017684441059827805,0.034834977239370346,-0.0028348821215331554,0.011352398432791233,-0.07846351712942123,-0.008222132921218872,0.04905351251363754,-0.01761234924197197]],"b7f6665286ea77760fb815ac0d92dea5":[0.9999914869056333,[0.01568928174674511,0.03372219204902649,-0.03735557198524475,0.0021123408805578947,0.002167308935895562,0.041186124086380005,0.011823787353932858,0.00853757280856371,0.019241532310843468,-0.003510788781568408,-0.002361998427659273,0.055644724518060684,0.025277260690927505,-0.05384737625718117,0.013184557668864727,-0.026577936485409737,0.023596547544002533,0.04372143745422363,-0.06056557968258858,-0.03881187364459038,-0.023417692631483078,-0.005007948726415634,0.029794029891490936,-0.009807510301470757,0.006289554759860039,-0.0742066353559494,0.024244079366326332,-0.006085083819925785,-0.002255949191749096,-0.04034481570124626,-0.007608480751514435,0.049076348543167114,0.03540126979351044,-0.020899109542369843,0.07134542614221573,0.058128561824560165,-0.03275945410132408,0.0136421425268054,0.0533311665058136,0.004225179087370634,-0.06901915371417999,-0.058649320155382156,0.013031314127147198,-0.006167839281260967,-0.03691546991467476,-0.027303112670779228,-0.04396415874361992,0.0009706533746793866,-0.008569132536649704,0.025701051577925682,0.0551191009581089,-0.01119837537407875,-0.0017318549798801541,0.01143722515553236,-0.06299293786287308,-0.06274761259555817,-0.06341500580310822,-0.056020818650722504,0.05703223496675491,0.018131058663129807,-0.03366822749376297,-0.0052680266089737415,-0.050324153155088425,-0.03868778422474861,-0.004237440414726734,0.019716251641511917,0.021702775731682777,-0.0061751785688102245,-0.04200322926044464,0.049477338790893555,-0.042990971356630325,0.01616913639008999,-0.05643422529101372,-0.01718274876475334,-0.015497741289436817,-0.019494665786623955,0.005635577719658613,0.020673463121056557,0.03973887860774994,0.029772745445370674,0.018622107803821564,-0.03382861614227295,-0.002842644229531288,0.03620734438300133,0.03767285495996475,0.021190891042351723,0.03291144594550133,-0.03235788643360138,-0.07111338526010513,-0.009420990012586117,0.04952388256788254,0.018459545448422432,-0.020404107868671417,0.029884865507483482,0.08878754824399948,-0.002269139513373375,-0.08336246758699417,-0.12667256593704224,0.05629716441035271,0.06433305889368057,0.0041345590725541115,0.011684440076351166,-0.012849119491875172,0.0026751135010272264,0.03396720439195633,-0.013926590792834759,-0.009262293577194214,-0.06856916844844818,-0.050787873566150665,0.03627290949225426,-0.024954887107014656,-0.007955745793879032,0.004760930314660072,0.026937752962112427,-0.04546566680073738,0.02479398064315319,0.015311152674257755,0.04304300621151924,-0.04214821383357048,-0.015940232202410698,0.046657271683216095,0.0039726076647639275,-0.03561576455831528,0.035502951592206955,0.04113951325416565,0.01140626985579729,0.0044247182086110115,-0.04284154996275902,-0.08169514685869217,0.01837078295648098,0.023091280832886696,-0.0787423849105835,0.016022594645619392,0.026409337297081947,-0.032455526292324066,0.011067223735153675,0.012888985686004162,0.04372174292802811,0.03747028857469559,-0.01055744756013155,0.005715015809983015,-0.016168272122740746,-0.08677426725625992,0.08591274917125702,0.026324747130274773,-0.031189020723104477,0.012744789011776447,0.0725356861948967,-0.04650520533323288,0.008192425593733788,-0.04924018681049347,0.003123049158602953,0.028989924117922783,-0.039060406386852264,-0.024216411635279655,-0.028078125789761543,0.03207597881555557,-0.08712069690227509,0.022701049223542213,0.009832954034209251,0.00996970385313034,-0.056246425956487656,0.0055445716716349125,0.034895576536655426,0.00950134452432394,-0.027145840227603912,-0.0823294147849083,0.015126314014196396,0.022703448310494423,-0.03796040639281273,-0.054659925401210785,-0.04339728504419327,-0.019337275996804237,-0.011709760874509811,-0.0034773927181959152,0.08470205217599869,-0.049533944576978683,0.008891666308045387,-0.035626549273729324,0.030943704769015312,0.07304192334413528,0.05790906772017479,-0.03905586153268814,-0.03750014677643776,0.00268062436953187,0.019593287259340286,0.03867615386843681,0.01595013216137886,0.020613912492990494,0.006532175466418266,0.02810017764568329,-0.04256255924701691,0.01246845442801714,0.04938005656003952,-0.026562806218862534,0.0066040074452757835,0.048696838319301605,-0.016680307686328888,-0.05083819851279259,-0.04328937083482742,0.07117436081171036,0.020137865096330643,-0.04498607665300369,-0.007999883033335209,0.00873920414596796,0.029962435364723206,-0.037607889622449875,-0.04828143119812012,-0.0034886025823652744,0.048420824110507965,-0.027839420363307,-0.05238084867596626,-0.0014440924860537052,-0.04955504834651947,0.002420102944597602,-0.04173705726861954,0.036258865147829056,0.010219110175967216,0.08360522240400314,-0.006973398383706808,-0.016976118087768555,-0.03907265514135361,-0.007911029271781445,0.04707377031445503,0.008344712667167187,-0.037515465170145035,-0.0751786082983017,0.013770153746008873,-0.031969279050827026,-0.050067245960235596,-0.006887640804052353,0.02330552227795124,0.011068792082369328,0.012852616608142853,-0.039052143692970276,0.006377188488841057,-0.0022552190348505974,-0.06770870834589005,-0.015057042241096497,-0.027866976335644722,0.0013370774686336517,-0.019384777173399925,-0.01978112943470478,0.005276468116790056,0.015608537942171097,0.008528249338269234,0.004715443588793278,-0.005720082204788923,0.00023939626407809556,-0.05396590381860733,0.049573253840208054,-0.05056104063987732,-0.02732417918741703,-0.03968491405248642,-0.06618643552064896,0.00381413078866899,0.029990268871188164,-0.025843840092420578,0.011516595259308815,0.008183867670595646,0.04509538784623146,0.001293538836762309,-0.026347259059548378,-0.06732185184955597,-0.058497536927461624,-0.014323029667139053,-0.059303414076566696,-0.03669026121497154,0.004329499322921038,-0.026295427232980728,0.019679607823491096,-0.015774933621287346,-0.03421558812260628,-0.00029225138132460415,-0.0664016529917717,0.024046193808317184,0.007838433608412743,0.01297991257160902,-0.08946176618337631,-0.03765587508678436,0.027896760031580925,-0.010029736906290054,-0.016036536544561386,-0.01977841928601265,0.031071031466126442,-0.028979411348700523,-0.004728503059595823,-0.03736434131860733,-0.0012546919751912355,0.0016448835376650095,0.03366544097661972,0.07064884901046753,-0.01798870600759983,0.006999834440648556,0.06163804605603218,0.04228812828660011,0.05066978186368942,0.035889215767383575,0.04558490216732025,-0.002505950629711151,0.024654529988765717,0.017781730741262436,-0.032183654606342316,0.07670973986387253,0.0020325134973973036,0.0054429215379059315,-0.06420590728521347,-0.012291387654840946,-0.024940960109233856,-0.008907599374651909,0.04534408450126648,0.017426082864403725,-0.002954900963231921,0.0045517850667238235,-0.04051310941576958,-0.04566449299454689,-0.11181776225566864,-0.010495916940271854,-0.014088625088334084,0.018175803124904633,0.056535281240940094,-0.030258381739258766,-0.06908836215734482,-0.006856666412204504,0.024398760870099068,-0.030350586399435997,-0.01414838619530201,0.018107254058122635,-0.0034194777254015207,-0.02566314861178398,0.04481275752186775,-0.009994329884648323,-0.02237199991941452,-0.013752602972090244,-0.00929759070277214,0.024220971390604973,-0.0725824162364006,0.013031553477048874,0.06306090205907822,0.044471375644207,0.03582705929875374,0.00986957922577858,0.02876589633524418,0.025120453909039497,-0.05373659357428551,-0.021307535469532013,-0.003771970048546791,-0.012853877618908882,0.014791672118008137,0.010921058245003223,0.041843295097351074,0.05415158346295357,0.010000426322221756,-0.008214646019041538,0.019886692985892296,-0.026478862389922142,0.03628048300743103,-0.035790976136922836,0.00536699965596199,-0.031970247626304626,0.014271893538534641,0.044735100120306015,0.005341746844351292,0.03456301987171173,-0.01230990793555975,-0.006354606710374355,0.021115511655807495,0.0443955697119236,0.012678289785981178,-0.008153448812663555,-0.014897492714226246,0.020752791315317154,0.035186849534511566,-0.025833183899521828,-0.014606857672333717,-0.05471361055970192,-0.04091847687959671,0.03615507110953331,0.013422437943518162,-0.012295377440750599,-0.0063979183323681355,0.002225455129519105,-0.021008649840950966,0.015238798223435879,-0.01063882652670145,0.06421809643507004,-0.0802084282040596,0.019244486466050148,0.012039661407470703,-0.010217562317848206,-0.019119227305054665,0.05119936913251877,0.005382354371249676,0.019709918648004532,-0.009706978686153889,0.05778078734874725,-0.006244964431971312,0.03910252824425697,-0.019776824861764908,0.019980164244771004,-0.07201982289552689,-0.01799852028489113,0.07371625304222107,-0.0192229263484478,-0.013729110360145569,0.004020410589873791,0.07281097024679184,0.016222165897488594,-0.05945974215865135,0.012345418334007263,0.012095996178686619,-0.06369958072900772,-0.02194552682340145,0.020890042185783386,-0.015028939582407475,0.019498877227306366,0.02026286907494068,-0.015170490369200706,0.003608555532991886,0.032956209033727646,-0.0519663505256176,-0.004453158471733332,0.051461655646562576,0.04214063286781311,-0.03604756295681,-0.10412374883890152,0.009677952155470848,-0.010016382671892643,0.010831132531166077,0.0018877312541007996,0.04192015156149864,0.06232839450240135,-0.005450309254229069,0.01401637401431799,-0.029378144070506096,0.004102485720068216,-0.0037750951014459133,-0.04976032301783562,0.009965253993868828,0.027915045619010925,0.015095295384526253,0.04296768829226494,0.07376605272293091,0.009876436553895473,0.02403358928859234,0.01918458193540573,0.011071338318288326,-0.0012480919249355793,0.030455419793725014,-0.07779832184314728,-0.050939708948135376,-0.010862871073186398,-0.003551968839019537,-0.04267256706953049,-0.09095530956983566,0.05142213776707649,0.042678866535425186,0.02469760552048683,0.006642771884799004,-0.03876463696360588,-0.037748925387859344,-0.012812118977308273,0.03515484184026718,-0.04930557310581207,0.015404350124299526,-0.04095613211393356,-0.019320864230394363,0.02003076858818531,-0.04282630607485771,-0.013242531567811966,0.05686011537909508,-0.013929223641753197,0.07822944968938828,0.032237786799669266,-0.02394890785217285,0.02695412188768387,0.012738965451717377,-0.018435653299093246,0.02565772272646427,0.019446682184934616,-0.03384143114089966,0.019085632637143135,-0.026237020269036293,0.013547697104513645,0.0380694605410099,-0.015905100852251053,-0.020110197365283966,0.004138347692787647,-0.02014828659594059,-0.06687919795513153,0.028159525245428085,-0.015350613743066788,-0.036058735102415085,-0.031220693141222,0.011559569276869297,-0.026463210582733154,0.02605939842760563,-0.03894522041082382,0.004243861883878708,0.03214871510863304,0.07972416281700134,-0.011085519567131996,-0.0053011165000498295,-0.028063109144568443,-0.007585629355162382,-0.028363093733787537,-0.03564547747373581,-0.0254109688103199,0.02907891944050789,0.06923031061887741,0.04561590030789375,-0.0027367465663701296,0.03624763339757919,0.015021443367004395,-0.056557293981313705,0.030953126028180122,-0.06166858971118927,-0.014401695691049099,0.00243581086397171,0.0775759369134903,-0.019861167296767235,-0.025913558900356293,0.011036760173738003,-0.027497466653585434,-0.015318900346755981,-0.04863232374191284,0.023423932492733,-0.0182124562561512,-0.00014423500397242606,0.030495574697852135,-0.017292071133852005,0.0727105513215065,0.06306249648332596,-0.00026256305864080787,0.0586731880903244,0.016083618625998497,0.07257265597581863,0.008226839825510979,-0.00021373563504312187,0.058007750660181046,0.0065947286784648895,0.026108689606189728,0.04302234947681427,0.0469951368868351,0.0881141796708107,0.004895924124866724,0.023068800568580627,0.059889283031225204,0.025787796825170517,0.02668554149568081,0.0017235549166798592,-0.006112717092037201,-0.00370013783685863,0.03246342018246651,-0.029112236574292183,-0.02530612237751484,0.04582791030406952,-0.04141978174448013,-0.05193564295768738,-0.007551793474704027,0.021949801594018936,-0.005378586705774069,-0.016200101003050804,-0.028363164514303207,-0.016035540029406548,0.025649240240454674,-0.01656840741634369,0.08048920333385468,-0.03210137411952019,-0.03904752805829048,0.0017699257005006075,0.018262788653373718,0.07498928159475327,-0.05127439647912979,-0.007011578883975744,-0.005333820823580027,-0.0838124006986618,-0.022689439356327057,0.010096126236021519,-0.007304822094738483,0.025189880281686783,-0.004854212980717421,0.08916532248258591,0.013583400286734104,-0.028716063126921654,0.01417910773307085,0.018147798255085945,0.0007437583990395069,-0.01640981063246727,0.010304315946996212,-0.02106962725520134,0.03684195876121521,0.023997774347662926,-0.05076621472835541,0.044350799173116684,0.00417687464505434,-0.033580441027879715,-0.014020663686096668,0.007105309050530195,-0.026676204055547714,0.043367430567741394,-0.02358088828623295,0.013516957871615887,0.00793779082596302,-0.06894036382436752,-0.06773623079061508,-0.04516299441456795,-0.09667778760194778,0.02894710749387741,0.0663483664393425,0.006425955798476934,0.03582768514752388,-0.0033791279420256615,-0.05445936322212219,-0.006969701033085585,0.03793211653828621,-0.005281347315758467,-0.004027670249342918,0.052113473415374756,0.04320376738905907,0.01074150763452053,0.05057194083929062,-0.00145578698720783,0.017987802624702454,-0.03282829374074936,-0.02284316159784794,-0.04142843186855316,-0.009258037433028221,0.011261416599154472,-0.035003822296857834,-0.06164543330669403,0.03028235025703907,0.04209353029727936,-0.023197103291749954,-0.03005102090537548,-0.047729771584272385,-0.030642259865999222,0.0009226190159097314,0.054433561861515045,-0.028976954519748688,-0.009406317956745625,0.021209392696619034,0.05447663366794586,-0.011614473536610603,-0.08503656834363937,0.03163786605000496,0.01916910521686077,0.0197314340621233,0.03669307380914688,0.029687736183404922,-0.040222421288490295,0.06159771606326103,0.002779874950647354,0.017100078985095024,-0.0047712442465126514,-0.039874158799648285,-0.056793469935655594,-0.000316324905725196,-0.004069288726896048,-0.03843298554420471,0.002945962827652693,0.007859345525503159,-0.021105891093611717,0.0002130790671799332,-0.05706656351685524,-0.010683601722121239,-0.07650667428970337,-0.0125974016264081,-0.02184845693409443,-0.014414901845157146,0.00030168198281899095,-0.004775337874889374,0.015019375830888748,0.040064629167318344,0.003146577160805464,-0.035903118550777435,0.047154419124126434,0.02066362276673317,-0.012659129686653614,-0.007408998440951109,-0.019181879237294197,-0.017046397551894188,0.041441187262535095,-0.029057195410132408,0.011959214694797993,0.019656425341963768,0.009599326178431511,-0.0040784673765301704,-0.004044147673994303,-0.005737028084695339,0.01364864781498909,-0.02551884949207306,-0.00648476229980588,0.05764966830611229,-0.05076457932591438,0.020488811656832695,-0.027638612315058708,0.030276458710432053,-0.04382074251770973,0.009118934161961079,0.014734048396348953,0.02393486350774765,-0.044530678540468216,-0.0051038083620369434,0.0214241910725832,-0.03708214312791824,0.014360584318637848,0.0706290453672409,-0.018610067665576935,0.017244853079319,-0.0308628361672163,0.059967610985040665,0.0452519953250885,-0.008565236814320087,0.04374540224671364,0.039101675152778625,0.03569823130965233,0.023070242255926132,0.01807725988328457,0.025445256382226944,0.017412947490811348,-0.015059545636177063,0.027255194261670113,0.015547025948762894,0.019911911338567734,-0.032839398831129074,0.0029486410785466433,-0.029908379539847374,-0.03924145922064781,0.05058140307664871,0.008102168329060078,0.02806769497692585,-0.08703097701072693,-0.007989843375980854,-0.009909949265420437,-0.05365835130214691,-0.008699258789420128,0.009875313378870487,-0.03595033288002014,-0.008293780498206615,-0.00011862369865411893,0.030417397618293762,-0.00996820442378521,-0.044352274388074875,0.07162049412727356,0.02212315797805786,-0.016508713364601135,0.012992672622203827,-0.009471885859966278,-0.025723453611135483,-0.06885642558336258,0.0009777410887181759,0.004923386499285698,0.012171724811196327,0.030467679724097252,-0.00039266698877327144,-0.025823192670941353,-0.0066205780021846294,0.037870071828365326,0.004875705577433109,-0.031773753464221954,0.0422237403690815,0.029842283576726913,0.018188059329986572,-0.04105331376194954,0.017239999026060104,0.04271581768989563,-0.030208950862288475]]}}},"searchableProperties":["id","title","path","content","embedding","embeddingModel","created_at","ctime","mtime","tags","extension"],"searchablePropertiesWithTypes":{"id":"string","title":"string","path":"string","content":"string","embedding":"vector[768]","embeddingModel":"string","created_at":"number","ctime":"number","mtime":"number","tags":"string[]","extension":"string"},"frequencies":{"id":{"1":{"5645030a3f4b1630e001bf5f2708b13b":1},"2":{"ec748b11b4fdbf223089f50cc7da5044":1},"3":{"b7f6665286ea77760fb815ac0d92dea5":1}},"title":{"1":{"tasks":1},"2":{"task":0.5,"template":0.5},"3":{"meeting":0.5,"template":0.5}},"path":{"1":{"03_docs":0.3333333333333333,"tasks":0.3333333333333333,"md":0.3333333333333333},"2":{"03_docs":0.2,"templates":0.2,"task":0.2,"template":0.2,"md":0.2},"3":{"03_docs":0.2,"templates":0.2,"meeting":0.2,"template":0.2,"md":0.2}},"content":{"1":{"10":0.03333333333333333,"14":0.03333333333333333,"28":0.03333333333333333,"48":0.03333333333333333,"56":0.03333333333333333,"2025":0.03333333333333333,"note":0.03333333333333333,"title":0.03333333333333333,"tasks":0.03333333333333333,"metadata":0.03333333333333333,"kanban-plugin":0.03333333333333333,"board":0.03333333333333333,"created":0.03333333333333333,"05":0.03333333333333333,"modified":0.03333333333333333,"07":0.03333333333333333,"03":0.03333333333333333,"block":0.03333333333333333,"content":0.03333333333333333,"---":0.03333333333333333,"backlog":0.03333333333333333,"to-do":0.03333333333333333,"doing":0.03333333333333333,"pauzed":0.03333333333333333,"blocked":0.03333333333333333,"done":0.03333333333333333,"kanban":0.03333333333333333,"settings":0.03333333333333333,"list-collapse":0.03333333333333333,"false":0.03333333333333333},"2":{"13":0.02127659574468085,"14":0.02127659574468085,"18":0.02127659574468085,"28":0.02127659574468085,"35":0.02127659574468085,"52":0.02127659574468085,"2025":0.02127659574468085,"note":0.02127659574468085,"title":0.02127659574468085,"task":0.02127659574468085,"template":0.02127659574468085,"metadata":0.02127659574468085,"created":0.02127659574468085,"07":0.02127659574468085,"modified":0.02127659574468085,"00":0.02127659574468085,"block":0.02127659574468085,"content":0.02127659574468085,"description":0.02127659574468085,"--":0.02127659574468085,"write":0.02127659574468085,"a":0.02127659574468085,"short":0.02127659574468085,"summary":0.02127659574468085,"of":0.02127659574468085,"the":0.02127659574468085,"or":0.02127659574468085,"project":0.02127659574468085,"subtasks":0.02127659574468085,"-":0.02127659574468085,"first":0.02127659574468085,"actionable":0.02127659574468085,"step":0.02127659574468085,"second":0.02127659574468085,"final":0.02127659574468085,"review":0.02127659574468085,"due":0.02127659574468085,"date":0.02127659574468085,"yyyy-mm-dd":0.02127659574468085,"related":0.02127659574468085,"notes":0.02127659574468085,"link":0.02127659574468085,"here":0.02127659574468085,"tags":0.02127659574468085,"info":0.02127659574468085,"ideas":0.02127659574468085,"go":0.02127659574468085},"3":{"11":0.043478260869565216,"13":0.043478260869565216,"15":0.043478260869565216,"24":0.043478260869565216,"2025":0.043478260869565216,"note":0.043478260869565216,"title":0.043478260869565216,"meeting":0.043478260869565216,"template":0.043478260869565216,"metadata":0.043478260869565216,"created":0.043478260869565216,"06":0.043478260869565216,"modified":0.043478260869565216,"07":0.043478260869565216,"block":0.043478260869565216,"content":0.043478260869565216,"datum":0.043478260869565216,"date":0.043478260869565216,"aanwezigen":0.043478260869565216,"tomer":0.043478260869565216,"voorbereiding":0.043478260869565216,"notes":0.043478260869565216,"acties":0.043478260869565216}},"embeddingModel":{"1":{"text-embedding-004":1},"2":{"text-embedding-004":1},"3":{"text-embedding-004":1}},"tags":{"2":{"task":1}},"extension":{"1":{"md":1},"2":{"md":1},"3":{"md":1}}},"tokenOccurrences":{"id":{"5645030a3f4b1630e001bf5f2708b13b":1,"ec748b11b4fdbf223089f50cc7da5044":1,"b7f6665286ea77760fb815ac0d92dea5":1},"title":{"tasks":1,"task":1,"template":2,"meeting":1},"path":{"03_docs":3,"tasks":1,"md":3,"templates":2,"task":1,"template":2,"meeting":1},"content":{"10":1,"11":1,"13":2,"14":2,"15":1,"18":1,"24":1,"28":2,"35":1,"48":1,"52":1,"56":1,"2025":3,"note":3,"title":3,"tasks":1,"metadata":3,"kanban-plugin":1,"board":1,"created":3,"05":1,"modified":3,"07":3,"03":1,"block":3,"content":3,"---":1,"backlog":1,"to-do":1,"doing":1,"pauzed":1,"blocked":1,"done":1,"kanban":1,"settings":1,"list-collapse":1,"false":1,"task":1,"template":2,"00":1,"description":1,"--":1,"write":1,"a":1,"short":1,"summary":1,"of":1,"the":1,"or":1,"project":1,"subtasks":1,"-":1,"first":1,"actionable":1,"step":1,"second":1,"final":1,"review":1,"due":1,"date":2,"yyyy-mm-dd":1,"related":1,"notes":2,"link":1,"here":1,"tags":1,"info":1,"ideas":1,"go":1,"meeting":1,"06":1,"datum":1,"aanwezigen":1,"tomer":1,"voorbereiding":1,"acties":1},"embeddingModel":{"text-embedding-004":3},"tags":{"task":1},"extension":{"md":3}},"avgFieldLength":{"id":1,"title":1.6666666666666667,"path":4.333333333333333,"content":33.333333333333336,"embeddingModel":1,"tags":0.5,"extension":1},"fieldLengths":{"id":{"1":1,"2":1,"3":1},"title":{"1":1,"2":2,"3":2},"path":{"1":3,"2":5,"3":5},"content":{"1":30,"2":47,"3":23},"embeddingModel":{"1":1,"2":1,"3":1},"tags":{"2":1},"extension":{"1":1,"2":1,"3":1}}},"docs":{"docs":{"1":{"title":"Tasks","path":"03_Docs/Tasks.md","embeddingModel":"text-embedding-004","ctime":1748437008656,"mtime":1753704190028,"tags":[],"extension":"md","metadata":{"kanban-plugin":"board","created":"2025/05/28 14:56:48","modified":"2025/07/28 14:03:10"},"id":"5645030a3f4b1630e001bf5f2708b13b","content":"\n\nNOTE TITLE: [[Tasks]]\n\nMETADATA:{\"kanban-plugin\":\"board\",\"created\":\"2025/05/28 14:56:48\",\"modified\":\"2025/07/28 14:03:10\"}\n\nNOTE BLOCK CONTENT:\n\n---\n\nkanban-plugin: board\n\n---\n\n## Backlog\n\n\n\n## To-do\n\n\n\n## Doing\n\n\n\n## Pauzed\n\n\n\n## Blocked\n\n\n\n## Done\n\n\n\n\n\n%% kanban:settings\n```\n{\"kanban-plugin\":\"board\",\"list-collapse\":[false,false,false,false,false,false]}\n```\n%%","embedding":[0.0036401697,0.06985645,-0.03555019,0.020599963,0.010210413,0.041472424,0.056800738,0.0040246714,0.02786209,-0.005647292,0.008672576,0.049046326,0.049936302,-0.007515647,-0.009382178,-0.05373264,0.027224535,0.015292627,-0.0027936574,-0.049041383,-0.047633335,-0.0034987733,-0.022859817,0.02249873,-0.018130848,-0.05536173,0.0021675783,0.0032966333,0.006215404,-0.029242907,0.012260383,0.03555832,0.011747081,-0.017700197,0.041539688,0.047103554,-0.03642477,0.055000972,0.025249101,-0.023766557,-0.055834856,-0.011703255,-0.024739055,0.017818393,-0.023505883,0.025026763,-0.025664654,-0.033675466,-0.0026152092,0.03618848,0.05944085,0.018125225,-0.011161785,-0.026892759,-0.09025697,-0.09528748,-0.07087403,-0.050067693,0.04776986,0.0037124853,-0.00093208253,-0.01889335,-0.050786942,-0.054450236,-0.004733916,-0.016130282,0.0044250893,0.005584333,-0.004662717,0.014410408,-0.03580301,0.049573265,-0.035715513,-0.01053493,-0.037893802,0.016337078,0.007164091,0.010398613,0.027889747,0.03541673,-0.009369309,-0.026332233,0.032613475,0.03668865,0.04333035,0.035286687,-0.008724752,0.015480346,-0.011002071,-0.05282769,0.07616088,0.022239102,-0.026906839,0.008557394,0.099124566,-0.038117044,-0.08799727,-0.12353252,0.051065452,0.0210311,-0.026575472,0.0018385955,-0.00048858003,-0.05077201,0.012073554,-0.03575091,-0.071002856,-0.0136795,-0.08753048,0.016290028,-0.010141191,-0.015467228,0.021175345,-0.009572032,-0.01374173,0.050584663,0.0044260724,0.018752126,-0.0032764224,-0.04799652,0.0659187,0.06862157,-0.010637363,0.046075057,0.059940293,0.0249583,-0.0284825,-0.010479399,0.0068161674,0.015566273,0.044020224,-0.032725133,-0.04073027,0.041332014,0.0071963174,0.017328404,0.031762455,0.0355171,0.051979292,0.017344197,-0.010017313,-0.014518414,-0.0786839,0.041138574,0.030394806,-0.016755186,0.037145253,0.055980686,-0.0044526444,0.040318526,-0.022952527,-0.0027960893,-0.01671403,-0.017978927,0.0008093869,-0.042020008,0.024428038,-0.042833567,0.019710636,0.016878393,0.024262806,-0.053067703,0.01715279,0.059296977,0.015490236,-0.05997075,-0.0973874,-0.006608067,0.020328881,0.011517113,-0.03953396,-0.04282853,-0.03781137,-0.03313676,-0.01879259,0.049717408,0.028240655,0.003321322,-0.049715888,-0.022899382,0.08912991,0.057317503,0.0005372666,-0.01018189,0.006814412,0.01711911,-0.016579073,0.0065331515,0.023702305,0.03297582,0.032617252,-0.025680073,0.060652666,0.056629088,-0.031770743,0.030688656,0.044912152,0.018131576,-0.026621768,-0.018101359,0.048977613,0.03071547,-0.0337787,0.03648696,0.0034635118,0.0050317487,-0.022710415,-0.07165512,0.017081272,-0.021067327,0.0010469819,-0.03061575,-0.016900495,-0.040417843,0.034312688,-0.0050045876,0.03515746,0.028474588,0.0521651,-0.017494021,0.0043674204,0.013977316,0.012072147,0.024335152,0.00894933,-0.03610389,-0.08061476,0.006397509,0.020746786,-0.03328339,0.019013766,0.08803965,0.0011759264,-0.011292089,-0.01676958,0.014968599,0.003777576,-0.075093605,-0.043747067,0.036293246,-0.004097143,-0.03141885,0.019146292,0.01564536,0.062366575,0.0028660162,0.0016193683,0.0035308816,-0.022992216,-0.019774694,0.043697454,-0.03246061,-0.036047973,-0.00669317,-0.027061898,0.025945934,0.017961845,-0.021292863,0.0006564315,-0.0035523032,0.033086374,-0.044218674,-0.020836087,-0.051587533,-0.0794355,-0.0711966,-0.04206895,-0.003394281,0.019263458,-0.026492309,0.04704025,-0.058795486,-0.07093999,0.005695772,-0.065752655,0.0053764977,-0.021608302,0.0066795135,-0.056864243,-0.037619807,0.057322267,-0.018956842,0.0608837,-0.0016689,0.038039286,-0.006029556,-0.038890783,-0.029876867,-0.008422128,-0.027910566,0.02198143,0.053577524,-0.041976742,-0.026155122,0.020363608,0.033911858,0.03831006,0.09080081,0.0175305,-0.026055679,0.05428513,0.014932779,-0.009708541,0.031400762,-0.01730971,0.028705131,-0.049048644,-0.018543005,-0.006897939,-0.028905964,0.040654268,0.023234569,-0.042613,0.03290133,-0.025436856,-0.036449466,-0.19016351,0.024505273,-0.011566411,0.014956985,0.02342967,0.0071706027,-0.08014924,-0.00648897,0.012551257,-0.020443352,0.0055526085,0.015667321,-0.008130769,0.026670327,0.029666279,0.001568467,-0.015472673,-0.0037789769,-0.012381926,0.033276334,-0.033511993,0.0049300888,0.05240311,0.05103189,0.013764397,0.0071834247,0.016035434,0.040658724,-0.020274963,-0.026852438,0.015711842,-0.026289256,0.019821348,-0.037889775,0.051782478,0.072352074,-0.0045760493,0.021384053,0.013252364,0.010098254,0.025699003,0.0024788913,0.0039891372,-0.047017433,0.0026431475,0.03685144,0.008464541,0.061802525,-0.028460499,0.0202479,0.05363919,0.048482727,0.0043803207,-0.03882,-0.07345161,0.038952816,0.0038402134,-0.027287912,-0.0051167132,-0.03203825,-0.045088876,0.02345087,0.0056075444,-0.06600616,-0.025330853,-0.022209862,-0.00018274589,0.030908084,0.0010262189,0.091869354,-0.07286294,0.011371935,-0.013218101,-0.02534692,-0.008653912,0.015459086,0.005864821,0.040892575,-0.020458318,0.030146562,-0.0077688326,0.0696958,0.0016893136,0.04310598,-0.066091165,-0.026299736,0.04823142,-0.015051885,-0.021287845,-0.0044288966,0.029602485,0.03216424,0.009856831,0.023933228,0.031533,-0.061217904,-0.03208483,-0.00067558547,-0.017384658,0.025998823,-0.00025945777,0.010529916,0.016040027,0.023342079,-0.021500694,0.0034445333,0.046360623,0.010236454,-0.038669273,-0.07088076,-0.012332927,-0.004311024,-0.00034176727,0.0018264272,0.028581649,0.05414874,-0.038062565,-0.030233096,-0.008181594,0.023834828,0.0030341945,-0.07104354,0.0048706983,0.033666275,0.032155704,0.016093237,0.078417644,0.0027949286,-0.00039183177,0.019916164,0.008220348,-0.0062537957,0.0111256745,-0.065161936,-0.019223647,0.009176372,0.022983573,-0.044697385,-0.08331623,0.05093469,0.013093308,0.026795115,-0.026524207,-0.025636747,-0.067478776,0.00033217212,0.038454715,-0.016690144,0.018365894,-0.07439159,-0.067899264,0.0029530183,-0.0035289393,0.00044852984,0.02801168,0.021942716,0.014757395,0.015027074,-0.019907607,0.01422364,0.065740496,-0.0048591923,-0.008830842,0.012267162,-0.017264077,0.00395349,-0.0365972,0.009837001,0.038815863,-0.019827336,-0.03717707,0.009951039,0.025829673,-0.060613148,0.018140683,-0.019637853,-0.037029985,0.021908538,0.022043552,0.010447494,0.0645176,-0.017517222,0.0003192522,0.0056410176,0.095573165,0.010511305,0.031681847,-0.019888578,0.0070334584,-0.019777305,-0.0074624554,-0.022445457,0.082612365,0.06350616,0.02708415,-0.020750958,0.0017910333,0.014637023,-0.046930324,0.028765216,-0.066124864,-0.015757201,0.011149934,0.017387467,-0.05317398,-0.033437975,0.027606377,0.009912041,-0.014779331,-0.017407639,-0.009010656,0.031174174,0.033619788,0.025905313,-0.008268545,0.08612672,0.06929908,-0.0005440954,0.06322577,0.039131865,0.054959476,-0.009422482,0.05120956,0.009029789,0.002472878,0.044411086,0.037994925,-0.013745079,0.05739707,0.00072526315,0.0026722471,0.049187247,-0.013172206,0.062543154,-0.0177246,-0.015427495,-0.03772273,0.036154088,-0.015323543,-0.045703262,0.06697147,-0.02436792,-0.008306227,-0.0073054344,0.034946572,-0.00879272,-0.027119178,-0.0089307055,-0.013099624,-0.024613556,-0.01177832,0.077961326,-0.0013204145,-0.005548715,-0.020330917,0.005386092,0.038414173,-0.007035709,0.02188615,0.029775199,-0.0596597,-0.0069411444,0.0049724886,0.015497705,-0.012499721,0.003380488,0.051670164,0.028902385,-0.027334156,0.014282727,0.001482696,-0.04885407,0.031571407,0.015389472,0.0043732924,-0.011140143,-0.009551708,-0.02504376,0.06146813,-0.0005143987,-0.038200982,0.0059257825,0.0020521027,-0.008484669,0.05549953,-0.02903499,0.029894702,-0.02163641,-0.023640253,-0.05683132,-0.05573169,-0.09490947,0.038527325,0.043365654,-0.0042067748,0.054457877,0.010139357,-0.06318191,-0.07885811,0.035994828,-0.045280855,0.0024211856,0.056898277,0.05733141,-0.0002987858,0.036575362,-0.0066669337,-0.04034973,0.017849924,-0.027693933,-0.018561078,-0.03391842,0.010875744,-0.025209622,-0.044733178,0.03131294,0.051565643,-0.03900475,-0.022206228,-0.013016292,-0.030957883,0.019430157,-0.0046770046,-0.05181089,0.002406545,0.06513546,0.073041625,-0.02755791,-0.054217327,-0.008787055,0.008345615,0.022505352,0.017696744,0.017997494,0.01082012,0.0644122,-0.0065267226,0.029451836,-0.035325345,-0.006623145,-0.042208917,-0.012795913,0.047041845,-0.018498762,-0.0483393,-0.012464421,-0.0021190841,-0.011825075,-0.023596117,-0.023728395,-0.07624309,-0.026730891,0.01745851,-0.019010153,0.014662467,-0.011731747,0.004823898,0.059845764,0.0031544832,-0.05063683,0.032837972,0.030639207,0.004574942,0.03279815,-0.03896211,-0.00014474793,0.0355991,-0.033902317,0.040797513,0.004759705,0.023132823,-0.03666985,0.03050188,-0.0029670948,0.009352904,-0.020020999,-0.020591233,0.047093365,-0.03343439,0.037217446,-0.03368051,0.03231591,-0.003367462,-0.013833962,0.055240434,-0.014495623,-0.023578787,-0.04006439,0.023932314,-0.011716257,0.03618157,0.05465673,0.0030368723,0.032800704,-0.03741982,0.021909904,0.06893123,0.022432009,0.029694991,0.0073496723,0.015573328,0.020349469,-0.0066965763,0.06894763,0.007391681,-0.042352427,0.024216019,0.034860782,-0.00517863,-0.016864179,-0.0199078,0.038598806,0.0005158382,0.043585803,0.012439199,0.011669516,-0.059190247,0.007011262,-0.014412832,-0.044675093,0.02825275,-0.038880263,0.035056166,0.033132065,0.02709891,0.012126888,0.013314844,-0.06271956,0.021685908,0.012222968,-0.012115326,-0.031134238,0.000052925607,-0.046775483,-0.07954961,0.01482376,0.000990215,-0.012143925,-0.017788457,0.027284613,0.03466613,-0.018883713,0.051621486,0.017220523,-0.023892082,0.05944715,0.027423954,0.025653254,-0.05271537,-0.025136134,0.055988166,-0.040367525],"created_at":1753869874512,"nchars":366},"2":{"title":"task template","path":"03_Docs/Templates/task template.md","embeddingModel":"text-embedding-004","ctime":1753703555314,"mtime":1753704018384,"tags":["#task"],"extension":"md","metadata":{"created":"2025/07/28 13:52:35","modified":"2025/07/28 14:00:18"},"id":"ec748b11b4fdbf223089f50cc7da5044","content":"\n\nNOTE TITLE: [[task template]]\n\nMETADATA:{\"created\":\"2025/07/28 13:52:35\",\"modified\":\"2025/07/28 14:00:18\"}\n\nNOTE BLOCK CONTENT:\n\n#  Description\n<!-- Write a short summary of the task or project -->\n\n##  Subtasks\n- [ ] First actionable step\n- [ ] Second step\n- [ ] Final review\n\n##  Due Date\n**Due:** `{{date:YYYY-MM-DD}}`\n\n##  Related Notes\n<!-- Link related notes here -->\n\n##  Tags\n#task \n\n##  Info\n**Created:** `{{date:YYYY-MM-DD}}`\n\n##  Notes & Ideas\n<!-- Notes or Ideas go here -->","embedding":[0.0022492425,0.058331583,-0.037542466,0.00025497458,0.01771744,0.05135946,0.03989697,0.037262972,0.016837662,-0.0078066066,-0.0024016604,0.048817825,0.029203948,-0.0070766537,0.019943608,-0.012826913,0.0230871,0.06470673,-0.039485972,-0.021621559,-0.039306454,-0.0001827324,-0.014875658,-0.013540914,-0.027007667,-0.0662769,0.025682308,0.009959111,0.03380684,-0.040566538,0.007979421,0.05296911,0.02209465,-0.030699516,0.042069722,0.0482854,-0.03289951,0.021457314,0.031379472,-0.0048259725,-0.08680349,-0.06265096,-0.004889391,0.0014507644,-0.043234516,0.007819817,-0.05789145,-0.020825628,-0.0480678,0.022927275,0.056712702,0.004016796,-0.012293254,-0.009566296,-0.066038415,-0.08195851,-0.06602854,-0.06310396,0.054946195,0.024548404,0.0009244386,-0.0012708056,-0.03858815,-0.061835423,-0.02313295,-0.011627142,0.011098353,-0.018978091,-0.019735735,0.011130821,-0.026513394,0.053842284,-0.051024735,-0.037239123,-0.019186564,0.0043831393,0.002950922,-0.03360144,0.03204564,0.0005605589,0.0016388397,0.009452609,0.05059464,0.06379841,0.031896025,0.022652447,0.010799927,-0.030105624,-0.055883523,-0.04138648,0.043031923,0.03419893,-0.03234226,0.029418044,0.07404302,-0.04836779,-0.081131235,-0.15137741,0.03946401,0.030547159,-0.017096912,-0.02075239,0.016225994,-0.059046548,0.024483375,-0.060320657,-0.056938305,-0.025392689,-0.09622137,0.039806686,0.0014685283,0.018692428,-0.006225212,-0.023400282,-0.04785217,0.003110521,0.01058585,0.03134236,-0.023083437,-0.0322239,0.040292796,0.026646327,-0.033152446,0.06425373,0.06758933,0.009838323,0.0034989128,0.002691921,-0.017884618,0.005665301,0.032412626,-0.0346451,-0.013352436,0.030722208,0.0123734875,-0.015210299,-0.016581044,0.0464968,0.025029399,0.021837559,-0.005547472,-0.0052489494,-0.094352864,0.03320566,0.037053123,-0.0365343,0.06379029,0.03487103,-0.01705945,0.019781802,-0.06969415,0.022653775,-0.010801093,-0.030407108,-0.029932756,-0.056956254,0.023492945,-0.05630843,0.031828083,0.010275834,0.007820077,-0.034743678,0.0061937477,0.05408707,-0.025574766,-0.049475223,-0.05535034,-0.0040322896,0.016577998,-0.029141212,-0.060107764,-0.046322014,-0.056157958,-0.023440145,0.019207451,0.05359903,0.014318658,-0.009037017,-0.07049105,-0.004717002,0.06184411,0.035279904,-0.035633553,-0.021084493,0.03627193,0.0010729412,0.0018956192,0.022720767,0.008808173,0.06434567,0.014537494,-0.02617287,0.0056071836,0.065230176,-0.022142082,0.042197526,0.052319963,-0.026679007,-0.038758434,-0.00801034,0.0653553,0.044430494,-0.031523935,0.01405051,-0.008937657,0.012013554,-0.027790152,-0.071573116,0.03571109,-0.0064409752,-0.0141775785,-0.015458076,0.011637489,-0.047871534,0.013614958,-0.016766233,0.047548037,0.030134203,0.10056509,-0.0065367073,0.008746823,-0.01629966,0.03663718,0.056458157,-0.0006439768,0.004843318,-0.07749357,-0.003045998,0.0034439093,-0.036870506,0.0011158171,0.04693782,0.00615785,0.00024459665,-0.01873109,0.04028173,-0.0029763377,-0.08370297,-0.040682938,0.002063191,0.032465924,0.016363643,0.029638547,0.0058215656,0.03486123,0.0032047746,-0.011331427,-0.008249104,0.0054635997,-0.023783715,0.049133915,-0.021546826,-0.028329752,-0.046821024,-0.050884366,0.042526763,0.027252663,-0.0073130676,0.016408091,0.0017911927,0.036382265,-0.03225605,-0.023072898,-0.034933686,-0.040810697,-0.038724728,-0.038273137,-0.01911469,0.002498506,-0.02751608,-0.0004067912,-0.05079156,-0.07225171,0.003275571,-0.07257605,0.0128427455,-0.03604423,-0.0008372058,-0.082537636,-0.020136688,0.06357621,-0.032361437,0.005786094,-0.038211837,0.045021534,-0.015308362,-0.034627333,-0.006113738,-0.011853886,-0.016381137,0.026538022,0.05147442,-0.0070305243,-0.047687255,0.03474739,0.013716105,0.04534412,0.06403392,0.035947572,-0.029884998,0.01737568,0.016545508,-0.004226923,0.06441163,-0.041272897,0.017759977,-0.07187038,-0.013456525,-0.012288543,-0.035599455,0.049059555,0.023607949,-0.03351955,0.036966093,-0.03782436,-0.021450957,-0.15534188,0.017074596,-0.01891912,0.04806541,0.047487766,-0.009348645,-0.0877004,-0.017345726,0.046401653,0.012269062,0.022051778,-0.0098197255,0.013275411,-0.005788295,0.036735017,-0.027671319,-0.020620558,-0.011620565,0.007247395,0.06386735,-0.033245943,-0.010249794,0.048680793,0.047766093,0.030563442,0.005283777,0.024569118,0.019721435,-0.006140941,-0.030829908,0.004898887,-0.052955464,0.014152524,-0.02885473,0.05062323,0.09324038,0.023036111,0.006208784,-0.0010672063,0.0015445059,0.036725294,0.039601263,0.018639231,-0.02982455,-0.0069389693,0.038521323,0.012005285,0.07134336,-0.016677817,-0.0038425615,0.022273967,0.04932883,-0.004059774,0.0012729181,-0.040653817,0.03433744,0.04683025,-0.010514157,-0.0023762065,-0.023971887,-0.027555658,0.016256258,0.042815264,-0.04548278,-0.0049047996,-0.028684115,-0.010184809,0.03502075,-0.012848115,0.07826913,-0.07082709,0.01311856,-0.005004008,-0.034941036,-0.043545734,0.028427359,0.03169646,0.05766763,-0.018081844,0.023570674,-0.020792173,0.059497263,0.003107412,0.054426678,-0.049170826,0.000044852928,0.047027744,-0.0095485505,0.033156328,0.0015643906,0.048500028,0.039540093,-0.020827746,-0.0050951294,-0.0030749002,-0.05327565,-0.021861322,0.014787996,-0.030476954,0.029115314,0.007806036,0.0004464868,0.02261367,0.05380991,-0.0019105688,0.027395463,0.042873446,0.040094722,-0.048474412,-0.09739584,0.0068574273,-0.00013013596,-0.014968843,0.0032679085,0.04846966,0.04995248,-0.013631381,-0.031773787,-0.005446168,0.020780507,-0.0033560006,-0.05761521,-0.019614596,0.031958435,-0.0029593576,0.029077882,0.05871499,0.0141058825,-0.014463397,0.012234613,0.0037868985,0.015846036,0.009613012,-0.08182304,-0.043953177,-0.02246992,0.011628983,-0.08236115,-0.0889972,0.056303076,0.04857655,0.026234206,-0.020255052,-0.02710782,-0.06473851,-0.025447907,0.03396461,-0.04366417,0.026785944,-0.055965826,-0.08055228,0.01622118,-0.0057605,-0.004571219,0.045454938,0.022663688,0.025833894,0.016585564,-0.02969566,0.024136035,0.056463085,0.011768315,0.03294497,0.017955987,-0.019001668,0.02461541,-0.03960736,0.0071556247,0.048289403,-0.03681531,-0.039453436,-0.017541619,0.0030591937,-0.04359789,-0.004171801,0.0019938531,-0.022278752,0.008518441,0.02042414,-0.0008494367,0.04123687,-0.007851632,-0.0061740177,0.036124386,0.063913934,0.0036443754,-0.00908298,-0.026986929,-0.029779065,-0.027300296,-0.035530664,-0.028632846,0.020018268,0.0774916,0.024985557,-0.024144229,0.016454045,0.01903885,-0.025881357,0.018219829,-0.04752351,-0.012024417,0.006395327,0.052799266,-0.03869397,-0.051265255,-0.0028420151,-0.014630702,-0.0066602887,-0.043492474,0.01859585,0.00018207883,0.010481422,0.0047209896,0.00059699547,0.11162371,0.03841086,-0.0007458046,0.030204803,0.044715706,0.040123165,-0.0016434374,0.032289483,0.052156586,0.0076724268,0.012954389,0.021469986,0.02488157,0.054639958,-0.020365646,0.013995412,0.018184671,0.008234032,0.06299237,-0.009793951,-0.024694346,-0.044900358,0.047864366,-0.009859625,-0.04918157,0.035956267,0.0011207187,-0.03476926,0.020159645,0.017614601,-0.0026224295,-0.065824695,-0.010701545,-0.019500295,0.0030934142,-0.004107827,0.0822698,-0.013718211,-0.011341799,-0.02609887,-0.0047338107,0.03064699,-0.021132763,0.023146478,0.0012722281,-0.035016302,-0.0005658705,0.032171633,0.010375837,0.009623052,0.0057743806,0.064772904,0.014297586,-0.0014797979,0.0016534318,0.023945227,-0.04258529,0.03193715,0.0120183965,0.0071791424,0.015021371,0.007148202,-0.023306852,0.05213306,-0.0022832316,-0.026805738,0.01110005,-0.018863972,-0.028427126,0.036385532,-0.029083084,0.013668856,-0.020939292,-0.026746545,-0.058540158,-0.061726533,-0.07541395,0.020163912,0.041551527,-0.021058224,0.038875863,-0.0067750127,-0.052920908,-0.0886213,0.048103515,-0.038533848,0.011100536,0.027580073,0.0680065,0.026309889,0.05704473,-0.015041983,-0.031418677,-0.032322288,-0.031980354,-0.019599738,-0.020419145,0.045360245,-0.017972331,-0.041577056,0.010029396,0.04155107,-0.036333002,-0.01678963,-0.02352071,-0.026375746,-0.0069866665,0.01690169,-0.05033171,0.0025868348,0.052012097,0.09647914,-0.03856788,-0.058359623,0.027872458,0.014057659,-0.006575684,0.033278164,0.009314041,-0.03282854,0.07191161,0.012108805,0.027641715,-0.02891997,-0.0031997277,-0.052683543,-0.01044656,0.0018291443,-0.023888603,-0.02298277,0.0081166,-0.00028238146,0.010790497,-0.023381291,-0.021734044,-0.0904094,-0.040060002,-0.0119413,-0.023800133,-0.01226973,-0.036784153,0.019348703,0.039396696,0.004804756,-0.062097583,0.016800305,0.021761445,-0.000031993608,0.02347141,-0.046732374,-0.018155936,0.03107252,-0.016658148,0.0064305863,0.0029965811,0.012962243,-0.02864316,-0.008981896,-0.008387965,-0.0082323635,-0.024101086,-0.03656908,0.050575644,-0.030587988,0.04352601,-0.02182761,0.04301152,-0.035579555,-0.023229204,0.020169962,-0.021352712,-0.04042324,-0.038965173,0.03366002,-0.010377262,0.038692396,0.04523321,-0.025198312,0.02438042,-0.034273993,0.03995435,0.06209806,0.024962408,0.043279417,0.0107569955,0.009986254,0.050804373,0.0019555348,0.02799898,0.025202665,-0.041525804,0.015503858,0.037953746,0.040958934,-0.020556018,-0.011644905,-0.013333907,-0.035782162,0.025320783,0.00401061,0.015321614,-0.029843967,0.027875287,-0.018841732,-0.019854749,0.022219505,-0.013334769,0.014251453,0.0054397443,0.052340616,0.0018342462,-0.01868307,-0.045677017,0.043911647,0.021919899,-0.011719591,-0.010211629,-0.017217059,-0.03614594,-0.08167013,0.008785972,0.015723461,-0.012755263,0.003306477,0.0072749457,0.021555962,-0.0029346938,0.0071646767,0.0062641283,-0.017684441,0.034834977,-0.0028348821,0.011352398,-0.07846352,-0.008222133,0.049053513,-0.01761235],"created_at":1753869874513,"nchars":502},"3":{"title":"meeting template","path":"03_Docs/Templates/meeting template.md","embeddingModel":"text-embedding-004","ctime":1749647604733,"mtime":1749647707769,"tags":[],"extension":"md","metadata":{"created":"2025/06/11 15:13:24","modified":"2025/06/11 15:15:07"},"id":"b7f6665286ea77760fb815ac0d92dea5","content":"\n\nNOTE TITLE: [[meeting template]]\n\nMETADATA:{\"created\":\"2025/06/11 15:13:24\",\"modified\":\"2025/06/11 15:15:07\"}\n\nNOTE BLOCK CONTENT:\n\nDatum: {{date}}\nAanwezigen: Tomer, \n# Voorbereiding\n\n# Notes\n\n# Acties","embedding":[0.015689282,0.033722192,-0.037355572,0.0021123409,0.002167309,0.041186124,0.011823787,0.008537573,0.019241532,-0.0035107888,-0.0023619984,0.055644725,0.02527726,-0.053847376,0.013184558,-0.026577936,0.023596548,0.043721437,-0.06056558,-0.038811874,-0.023417693,-0.0050079487,0.02979403,-0.00980751,0.0062895548,-0.074206635,0.02424408,-0.006085084,-0.0022559492,-0.040344816,-0.0076084808,0.04907635,0.03540127,-0.02089911,0.071345426,0.05812856,-0.032759454,0.0136421425,0.053331167,0.004225179,-0.06901915,-0.05864932,0.013031314,-0.0061678393,-0.03691547,-0.027303113,-0.04396416,0.0009706534,-0.008569133,0.025701052,0.0551191,-0.011198375,-0.001731855,0.011437225,-0.06299294,-0.06274761,-0.063415006,-0.05602082,0.057032235,0.018131059,-0.033668227,-0.0052680266,-0.050324153,-0.038687784,-0.0042374404,0.019716252,0.021702776,-0.0061751786,-0.04200323,0.04947734,-0.04299097,0.016169136,-0.056434225,-0.017182749,-0.015497741,-0.019494666,0.0056355777,0.020673463,0.03973888,0.029772745,0.018622108,-0.033828616,-0.0028426442,0.036207344,0.037672855,0.021190891,0.032911446,-0.032357886,-0.071113385,-0.00942099,0.049523883,0.018459545,-0.020404108,0.029884866,0.08878755,-0.0022691395,-0.08336247,-0.12667257,0.056297164,0.06433306,0.004134559,0.01168444,-0.0128491195,0.0026751135,0.033967204,-0.013926591,-0.009262294,-0.06856917,-0.050787874,0.03627291,-0.024954887,-0.007955746,0.0047609303,0.026937753,-0.045465667,0.02479398,0.015311153,0.043043006,-0.042148214,-0.015940232,0.04665727,0.0039726077,-0.035615765,0.03550295,0.041139513,0.01140627,0.004424718,-0.04284155,-0.08169515,0.018370783,0.02309128,-0.078742385,0.016022595,0.026409337,-0.032455526,0.011067224,0.012888986,0.043721743,0.03747029,-0.010557448,0.005715016,-0.016168272,-0.08677427,0.08591275,0.026324747,-0.03118902,0.012744789,0.072535686,-0.046505205,0.008192426,-0.049240187,0.0031230492,0.028989924,-0.039060406,-0.024216412,-0.028078126,0.03207598,-0.0871207,0.02270105,0.009832954,0.009969704,-0.056246426,0.0055445717,0.034895577,0.0095013445,-0.02714584,-0.082329415,0.015126314,0.022703448,-0.037960406,-0.054659925,-0.043397285,-0.019337276,-0.011709761,-0.0034773927,0.08470205,-0.049533945,0.008891666,-0.03562655,0.030943705,0.07304192,0.057909068,-0.03905586,-0.037500147,0.0026806244,0.019593287,0.038676154,0.015950132,0.020613912,0.0065321755,0.028100178,-0.04256256,0.012468454,0.049380057,-0.026562806,0.0066040074,0.04869684,-0.016680308,-0.0508382,-0.04328937,0.07117436,0.020137865,-0.044986077,-0.007999883,0.008739204,0.029962435,-0.03760789,-0.04828143,-0.0034886026,0.048420824,-0.02783942,-0.05238085,-0.0014440925,-0.04955505,0.002420103,-0.041737057,0.036258865,0.01021911,0.08360522,-0.0069733984,-0.016976118,-0.039072655,-0.007911029,0.04707377,0.008344713,-0.037515465,-0.07517861,0.013770154,-0.03196928,-0.050067246,-0.006887641,0.023305522,0.011068792,0.012852617,-0.039052144,0.0063771885,-0.002255219,-0.06770871,-0.015057042,-0.027866976,0.0013370775,-0.019384777,-0.01978113,0.005276468,0.015608538,0.008528249,0.0047154436,-0.005720082,0.00023939626,-0.053965904,0.049573254,-0.05056104,-0.02732418,-0.039684914,-0.066186436,0.0038141308,0.029990269,-0.02584384,0.011516595,0.008183868,0.045095388,0.0012935388,-0.026347259,-0.06732185,-0.058497537,-0.01432303,-0.059303414,-0.03669026,0.0043294993,-0.026295427,0.019679608,-0.015774934,-0.034215588,-0.00029225138,-0.06640165,0.024046194,0.007838434,0.012979913,-0.089461766,-0.037655875,0.02789676,-0.010029737,-0.016036537,-0.01977842,0.031071031,-0.028979411,-0.004728503,-0.03736434,-0.001254692,0.0016448835,0.03366544,0.07064885,-0.017988706,0.0069998344,0.061638046,0.04228813,0.050669782,0.035889216,0.045584902,-0.0025059506,0.02465453,0.01778173,-0.032183655,0.07670974,0.0020325135,0.0054429215,-0.06420591,-0.012291388,-0.02494096,-0.008907599,0.045344085,0.017426083,-0.002954901,0.004551785,-0.04051311,-0.045664493,-0.11181776,-0.010495917,-0.014088625,0.018175803,0.05653528,-0.030258382,-0.06908836,-0.0068566664,0.02439876,-0.030350586,-0.014148386,0.018107254,-0.0034194777,-0.025663149,0.044812758,-0.00999433,-0.022372,-0.013752603,-0.009297591,0.024220971,-0.072582416,0.0130315535,0.0630609,0.044471376,0.03582706,0.009869579,0.028765896,0.025120454,-0.053736594,-0.021307535,-0.00377197,-0.012853878,0.014791672,0.010921058,0.041843295,0.054151583,0.010000426,-0.008214646,0.019886693,-0.026478862,0.036280483,-0.035790976,0.0053669997,-0.031970248,0.014271894,0.0447351,0.005341747,0.03456302,-0.012309908,-0.0063546067,0.021115512,0.04439557,0.01267829,-0.008153449,-0.014897493,0.020752791,0.03518685,-0.025833184,-0.014606858,-0.05471361,-0.040918477,0.03615507,0.013422438,-0.012295377,-0.0063979183,0.0022254551,-0.02100865,0.015238798,-0.0106388265,0.0642181,-0.08020843,0.019244486,0.012039661,-0.010217562,-0.019119227,0.05119937,0.0053823544,0.019709919,-0.009706979,0.057780787,-0.0062449644,0.03910253,-0.019776825,0.019980164,-0.07201982,-0.01799852,0.07371625,-0.019222926,-0.01372911,0.0040204106,0.07281097,0.016222166,-0.059459742,0.012345418,0.012095996,-0.06369958,-0.021945527,0.020890042,-0.01502894,0.019498877,0.02026287,-0.01517049,0.0036085555,0.03295621,-0.05196635,-0.0044531585,0.051461656,0.042140633,-0.036047563,-0.10412375,0.009677952,-0.010016383,0.0108311325,0.0018877313,0.04192015,0.062328395,-0.0054503093,0.014016374,-0.029378144,0.0041024857,-0.003775095,-0.049760323,0.009965254,0.027915046,0.015095295,0.04296769,0.07376605,0.009876437,0.02403359,0.019184582,0.011071338,-0.0012480919,0.03045542,-0.07779832,-0.05093971,-0.010862871,-0.0035519688,-0.042672567,-0.09095531,0.051422138,0.042678867,0.024697606,0.006642772,-0.038764637,-0.037748925,-0.012812119,0.03515484,-0.049305573,0.01540435,-0.040956132,-0.019320864,0.020030769,-0.042826306,-0.013242532,0.056860115,-0.013929224,0.07822945,0.032237787,-0.023948908,0.026954122,0.012738965,-0.018435653,0.025657723,0.019446682,-0.03384143,0.019085633,-0.02623702,0.013547697,0.03806946,-0.0159051,-0.020110197,0.0041383477,-0.020148287,-0.0668792,0.028159525,-0.015350614,-0.036058735,-0.031220693,0.011559569,-0.02646321,0.026059398,-0.03894522,0.004243862,0.032148715,0.07972416,-0.01108552,-0.0053011165,-0.02806311,-0.0075856294,-0.028363094,-0.035645477,-0.025410969,0.02907892,0.06923031,0.0456159,-0.0027367466,0.036247633,0.015021443,-0.056557294,0.030953126,-0.06166859,-0.014401696,0.0024358109,0.07757594,-0.019861167,-0.025913559,0.01103676,-0.027497467,-0.0153189,-0.048632324,0.023423932,-0.018212456,-0.000144235,0.030495575,-0.017292071,0.07271055,0.0630625,-0.00026256306,0.058673188,0.016083619,0.072572656,0.00822684,-0.00021373564,0.05800775,0.0065947287,0.02610869,0.04302235,0.046995137,0.08811418,0.004895924,0.0230688,0.059889283,0.025787797,0.026685541,0.0017235549,-0.006112717,-0.0037001378,0.03246342,-0.029112237,-0.025306122,0.04582791,-0.04141978,-0.051935643,-0.0075517935,0.021949802,-0.0053785867,-0.016200101,-0.028363165,-0.01603554,0.02564924,-0.016568407,0.0804892,-0.032101374,-0.039047528,0.0017699257,0.018262789,0.07498928,-0.051274396,-0.007011579,-0.005333821,-0.0838124,-0.02268944,0.010096126,-0.007304822,0.02518988,-0.004854213,0.08916532,0.0135834,-0.028716063,0.014179108,0.018147798,0.0007437584,-0.01640981,0.010304316,-0.021069627,0.03684196,0.023997774,-0.050766215,0.0443508,0.0041768746,-0.03358044,-0.014020664,0.007105309,-0.026676204,0.04336743,-0.023580888,0.013516958,0.007937791,-0.068940364,-0.06773623,-0.045162994,-0.09667779,0.028947107,0.06634837,0.006425956,0.035827685,-0.003379128,-0.054459363,-0.006969701,0.037932117,-0.0052813473,-0.0040276702,0.052113473,0.043203767,0.010741508,0.05057194,-0.001455787,0.017987803,-0.032828294,-0.022843162,-0.041428432,-0.009258037,0.011261417,-0.035003822,-0.061645433,0.03028235,0.04209353,-0.023197103,-0.03005102,-0.04772977,-0.03064226,0.000922619,0.05443356,-0.028976955,-0.009406318,0.021209393,0.054476634,-0.011614474,-0.08503657,0.031637866,0.019169105,0.019731434,0.036693074,0.029687736,-0.04022242,0.061597716,0.002779875,0.017100079,-0.0047712442,-0.03987416,-0.05679347,-0.0003163249,-0.0040692887,-0.038432986,0.0029459628,0.0078593455,-0.021105891,0.00021307907,-0.057066564,-0.010683602,-0.076506674,-0.012597402,-0.021848457,-0.014414902,0.00030168198,-0.004775338,0.015019376,0.04006463,0.0031465772,-0.03590312,0.04715442,0.020663623,-0.01265913,-0.0074089984,-0.01918188,-0.017046398,0.041441187,-0.029057195,0.011959215,0.019656425,0.009599326,-0.0040784674,-0.0040441477,-0.005737028,0.013648648,-0.02551885,-0.0064847623,0.05764967,-0.05076458,0.020488812,-0.027638612,0.030276459,-0.043820743,0.009118934,0.014734048,0.023934864,-0.04453068,-0.0051038084,0.021424191,-0.037082143,0.014360584,0.070629045,-0.018610068,0.017244853,-0.030862836,0.05996761,0.045251995,-0.008565237,0.043745402,0.039101675,0.03569823,0.023070242,0.01807726,0.025445256,0.017412947,-0.015059546,0.027255194,0.015547026,0.019911911,-0.0328394,0.002948641,-0.02990838,-0.03924146,0.050581403,0.008102168,0.028067695,-0.08703098,-0.007989843,-0.009909949,-0.05365835,-0.008699259,0.009875313,-0.035950333,-0.0082937805,-0.0001186237,0.030417398,-0.009968204,-0.044352274,0.071620494,0.022123158,-0.016508713,0.012992673,-0.009471886,-0.025723454,-0.068856426,0.0009777411,0.0049233865,0.012171725,0.03046768,-0.000392667,-0.025823193,-0.006620578,0.03787007,0.0048757056,-0.031773753,0.04222374,0.029842284,0.01818806,-0.041053314,0.017239999,0.042715818,-0.03020895],"created_at":1753869874514,"nchars":204}},"count":3},"sorting":{"language":"english","sortableProperties":["id","title","path","content","embeddingModel","created_at","ctime","mtime","extension"],"sortablePropertiesWithTypes":{"id":"string","title":"string","path":"string","content":"string","embeddingModel":"string","created_at":"number","ctime":"number","mtime":"number","extension":"string"},"sorts":{"id":{"docs":{"1":0,"2":2,"3":1},"orderedDocs":[[1,"5645030a3f4b1630e001bf5f2708b13b"],[3,"b7f6665286ea77760fb815ac0d92dea5"],[2,"ec748b11b4fdbf223089f50cc7da5044"]],"type":"string"},"title":{"docs":{"1":2,"2":1,"3":0},"orderedDocs":[[3,"meeting template"],[2,"task template"],[1,"Tasks"]],"type":"string"},"path":{"docs":{"1":0,"2":2,"3":1},"orderedDocs":[[1,"03_Docs/Tasks.md"],[3,"03_Docs/Templates/meeting template.md"],[2,"03_Docs/Templates/task template.md"]],"type":"string"},"content":{"docs":{"1":2,"2":1,"3":0},"orderedDocs":[[3,"\n\nNOTE TITLE: [[meeting template]]\n\nMETADATA:{\"created\":\"2025/06/11 15:13:24\",\"modified\":\"2025/06/11 15:15:07\"}\n\nNOTE BLOCK CONTENT:\n\nDatum: {{date}}\nAanwezigen: Tomer, \n# Voorbereiding\n\n# Notes\n\n# Acties"],[2,"\n\nNOTE TITLE: [[task template]]\n\nMETADATA:{\"created\":\"2025/07/28 13:52:35\",\"modified\":\"2025/07/28 14:00:18\"}\n\nNOTE BLOCK CONTENT:\n\n#  Description\n<!-- Write a short summary of the task or project -->\n\n##  Subtasks\n- [ ] First actionable step\n- [ ] Second step\n- [ ] Final review\n\n##  Due Date\n**Due:** `{{date:YYYY-MM-DD}}`\n\n##  Related Notes\n<!-- Link related notes here -->\n\n##  Tags\n#task \n\n##  Info\n**Created:** `{{date:YYYY-MM-DD}}`\n\n##  Notes & Ideas\n<!-- Notes or Ideas go here -->"],[1,"\n\nNOTE TITLE: [[Tasks]]\n\nMETADATA:{\"kanban-plugin\":\"board\",\"created\":\"2025/05/28 14:56:48\",\"modified\":\"2025/07/28 14:03:10\"}\n\nNOTE BLOCK CONTENT:\n\n---\n\nkanban-plugin: board\n\n---\n\n## Backlog\n\n\n\n## To-do\n\n\n\n## Doing\n\n\n\n## Pauzed\n\n\n\n## Blocked\n\n\n\n## Done\n\n\n\n\n\n%% kanban:settings\n```\n{\"kanban-plugin\":\"board\",\"list-collapse\":[false,false,false,false,false,false]}\n```\n%%"]],"type":"string"},"embeddingModel":{"docs":{"1":0,"2":1,"3":2},"orderedDocs":[[1,"text-embedding-004"],[2,"text-embedding-004"],[3,"text-embedding-004"]],"type":"string"},"created_at":{"docs":{"1":0,"2":1,"3":2},"orderedDocs":[[1,1753869874512],[2,1753869874513],[3,1753869874514]],"type":"number"},"ctime":{"docs":{"1":0,"2":2,"3":1},"orderedDocs":[[1,1748437008656],[3,1749647604733],[2,1753703555314]],"type":"number"},"mtime":{"docs":{"1":2,"2":1,"3":0},"orderedDocs":[[3,1749647707769],[2,1753704018384],[1,1753704190028]],"type":"number"},"extension":{"docs":{"1":0,"2":1,"3":2},"orderedDocs":[[1,"md"],[2,"md"],[3,"md"]],"type":"string"}},"enabled":true,"isSorted":true},"language":"english","schema":{"id":"string","title":"string","path":"string","content":"string","embedding":"vector[768]","embeddingModel":"string","created_at":"number","ctime":"number","mtime":"number","tags":"string[]","extension":"string"}}